<?xml version="1.0"?>
<opencv_storage>
<cascade>
  <stageType>BOOST</stageType>
  <featureType>LBP</featureType>
  <height>40</height>
  <width>40</width>
  <stageParams>
    <boostType>GAB</boostType>
    <minHitRate>9.9900001287460327e-01</minHitRate>
    <maxFalseAlarm>3.4999999403953552e-01</maxFalseAlarm>
    <weightTrimRate>9.4999999999999996e-01</weightTrimRate>
    <maxDepth>1</maxDepth>
    <maxWeakCount>100</maxWeakCount></stageParams>
  <featureParams>
    <maxCatCount>256</maxCatCount>
    <featSize>1</featSize></featureParams>
  <stageNum>20</stageNum>
  <stages>
    <!-- stage 0 -->
    <_>
      <maxWeakCount>8</maxWeakCount>
      <stageThreshold>-1.2269855737686157e+00</stageThreshold>
      <weakClassifiers>
        <_>
          <internalNodes>
            0 -1 12 -1114152 -1612234754 1175252288 1325785082
            -285221156 -1602914311 471817288 7697415</internalNodes>
          <leafValues>
            -6.0000002384185791e-01 6.7349398136138916e-01</leafValues></_>
        <_>
          <internalNodes>
            0 -1 106 -537558737 2142483359 1493490991 -1668154573
            -657668075 -306934598 -89548741 -996689041</internalNodes>
          <leafValues>
            -5.1069718599319458e-01 5.6468445062637329e-01</leafValues></_>
        <_>
          <internalNodes>
            0 -1 242 -1017646441 140032219 -1786129132 1494984573
            -523724357 -847216638 -928166336 -991303611</internalNodes>
          <leafValues>
            -5.6279510259628296e-01 4.8784768581390381e-01</leafValues></_>
        <_>
          <internalNodes>
            0 -1 94 -209237965 1993769478 -767016737 -261463848
            -165736175 1778586115 -1156267600 -85013512</internalNodes>
          <leafValues>
            -4.9633991718292236e-01 5.2369111776351929e-01</leafValues></_>
        <_>
          <internalNodes>
            0 -1 234 -610290430 -55140146 -2146034723 12632206 -74475136
            -1475671911 -359008727 -1599080141</internalNodes>
          <leafValues>
            -5.3093892335891724e-01 4.7487971186637878e-01</leafValues></_>
        <_>
          <internalNodes>
            0 -1 112 340283476 -1722810192 -1862266785 -245530609
            436229712 -1987837952 1644584286 -909906598</internalNodes>
          <leafValues>
            -5.7630109786987305e-01 4.5204263925552368e-01</leafValues></_>
        <_>
          <internalNodes>
            0 -1 6 -955596598 -1018248893 -2127707646 -343297521
            -1048497224 -813268415 -925822672 1717657653</internalNodes>
          <leafValues>
            -6.6961175203323364e-01 3.9679142832756042e-01</leafValues></_>
        <_>
          <internalNodes>
            0 -1 60 1952384603 1562061219 4379518 -1643875378 -133754253
            -1172254653 1776418829 -64965685</internalNodes>
          <leafValues>
            -6.1025691032409668e-01 4.1378188133239746e-01</leafValues></_></weakClassifiers></_>
    <!-- stage 1 -->
    <_>
      <maxWeakCount>10</maxWeakCount>
      <stageThreshold>-1.0186039209365845e+00</stageThreshold>
      <weakClassifiers>
        <_>
          <internalNodes>
            0 -1 47 -565936128 -1647934717 1360269887 -678038886
            -379782140 -937164932 -199560354 1436667</internalNodes>
          <leafValues>
            -4.7014299035072327e-01 6.5689599514007568e-01</leafValues></_>
        <_>
          <internalNodes>
            0 -1 125 -1433525247 -2076032941 -1064173114 2125616128
            1079648772 -1411219435 -2050195436 -190683118</internalNodes>
          <leafValues>
            -5.6959187984466553e-01 5.0211495161056519e-01</leafValues></_>
        <_>
          <internalNodes>
            0 -1 82 -421827534 -2010996092 -334968648 -503316464
            -730789808 1703416093 -786211916 -1594743646</internalNodes>
          <leafValues>
            -6.0501009225845337e-01 4.2851224541664124e-01</leafValues></_>
        <_>
          <internalNodes>
            0 -1 300 -486543529 -391446743 -8491603 -789156702
            -1088471786 -814224027 -1361584940 -222648864</internalNodes>
          <leafValues>
            -4.6692046523094177e-01 5.6364214420318604e-01</leafValues></_>
        <_>
          <internalNodes>
            0 -1 26 -1067459694 -646860346 219529563 298443030
            -800214292 1277199235 1221420687 156217879</internalNodes>
          <leafValues>
            -5.1197808980941772e-01 4.7740739583969116e-01</leafValues></_>
        <_>
          <internalNodes>
            0 -1 101 -50403239 -1158234370 -1896939521 1390997118
            -1669868010 -949682321 207932556 -17113974</internalNodes>
          <leafValues>
            -4.4954261183738708e-01 5.8845418691635132e-01</leafValues></_>
        <_>
          <internalNodes>
            0 -1 288 -588390441 -318832790 -130 -769016004 -9048107
            -721028 -1611803164 -1576360236</internalNodes>
          <leafValues>
            -4.5514822006225586e-01 5.7559305429458618e-01</leafValues></_>
        <_>
          <internalNodes>
            0 -1 200 -321057534 1624506380 -1486347902 -1294056958
            268634197 1090650121 -389111340 -220591968</internalNodes>
          <leafValues>
            -5.4590797424316406e-01 4.5970240235328674e-01</leafValues></_>
        <_>
          <internalNodes>
            0 -1 236 1506243859 336687122 201396314 138516674 -756103616
            -1903687544 -261910451 -1987450857</internalNodes>
          <leafValues>
            -5.2318269014358521e-01 4.8258590698242188e-01</leafValues></_>
        <_>
          <internalNodes>
            0 -1 65 -162071333 -14494499 -8429962 -1889051523 2113265321
            -1075131088 348731162 2065892354</internalNodes>
          <leafValues>
            -5.0111722946166992e-01 5.3021353483200073e-01</leafValues></_></weakClassifiers></_>
    <!-- stage 2 -->
    <_>
      <maxWeakCount>10</maxWeakCount>
      <stageThreshold>-5.9470200538635254e-01</stageThreshold>
      <weakClassifiers>
        <_>
          <internalNodes>
            0 -1 11 -268505586 -469762065 -257 -134217729 -161
            -805306369 -33556482 1156710390</internalNodes>
          <leafValues>
            -3.5971224308013916e-01 6.8092107772827148e-01</leafValues></_>
        <_>
          <internalNodes>
            0 -1 263 -137101329 -430866419 815115122 -262236173
            -624444801 -926316401 -157107484 -799677804</internalNodes>
          <leafValues>
            -5.5713397264480591e-01 4.9316802620887756e-01</leafValues></_>
        <_>
          <internalNodes>
            0 -1 192 -681707185 -1226456114 1552142558 369132182
            -913642658 -2381430 -1869874505 -533419541</internalNodes>
          <leafValues>
            -5.2635490894317627e-01 4.3270167708396912e-01</leafValues></_>
        <_>
          <internalNodes>
            0 -1 59 -287374657 -1748827653 408174847 -1361642629
            -896577963 -44842133 1610414783 -467619843</internalNodes>
          <leafValues>
            -5.3156614303588867e-01 4.3334421515464783e-01</leafValues></_>
        <_>
          <internalNodes>
            0 -1 107 2002514840 -134037486 -1862217387 -582774639
            -2012528148 -1710734205 185392043 135350427</internalNodes>
          <leafValues>
            -5.3275609016418457e-01 4.4743123650550842e-01</leafValues></_>
        <_>
          <internalNodes>
            0 -1 297 -1277166641 -1990311846 -788446841 -1001108714
            -1047563514 -770015024 -744751551 -4269579</internalNodes>
          <leafValues>
            -5.5572354793548584e-01 4.6576735377311707e-01</leafValues></_>
        <_>
          <internalNodes>
            0 -1 28 -157848633 -963440346 -268398506 1256112712
            -507286990 1699152003 1539841648 -54270217</internalNodes>
          <leafValues>
            -5.4298579692840576e-01 4.3745222687721252e-01</leafValues></_>
        <_>
          <internalNodes>
            0 -1 190 194791444 1930559664 1862373959 2101748713
            -1312652291 -662025017 759750831 -1948618691</internalNodes>
          <leafValues>
            -6.1765879392623901e-01 3.7879979610443115e-01</leafValues></_>
        <_>
          <internalNodes>
            0 -1 193 -154301888 -553499733 -1744252833 504263251
            -823190952 -1945665398 -1412576693 -1998133702</internalNodes>
          <leafValues>
            -6.6576671600341797e-01 3.3864250779151917e-01</leafValues></_>
        <_>
          <internalNodes>
            0 -1 173 -278924858 105337148 -937885310 -1118763703
            2022289804 1116211281 1651175648 -1002591061</internalNodes>
          <leafValues>
            -5.9404528141021729e-01 4.2501580715179443e-01</leafValues></_></weakClassifiers></_>
    <!-- stage 3 -->
    <_>
      <maxWeakCount>13</maxWeakCount>
      <stageThreshold>-8.0956888198852539e-01</stageThreshold>
      <weakClassifiers>
        <_>
          <internalNodes>
            0 -1 285 -1074790421 -1494831510 -134217806 -520159362
            -301992079 -806357001 1476320612 -453837343</internalNodes>
          <leafValues>
            -3.5798320174217224e-01 6.1604940891265869e-01</leafValues></_>
        <_>
          <internalNodes>
            0 -1 48 -233584418 -1087139781 1073758465 -1962425967
            -1072510818 -1606074157 -1978416181 293073627</internalNodes>
          <leafValues>
            -4.4565162062644958e-01 4.6043771505355835e-01</leafValues></_>
        <_>
          <internalNodes>
            0 -1 36 -536875313 -8388953 -889718658 -261177362 2012732767
            2134834999 -201918465 -164495505</internalNodes>
          <leafValues>
            -4.2054447531700134e-01 4.8692131042480469e-01</leafValues></_>
        <_>
          <internalNodes>
            0 -1 231 -1983921289 -1996189365 1904935383 -155297384
            -1277969593 -920223527 772796864 -860038496</internalNodes>
          <leafValues>
            -5.1360684633255005e-01 3.9042523503303528e-01</leafValues></_>
        <_>
          <internalNodes>
            0 -1 310 -1216620193 -442793485 -787237551 -389686061
            -206849709 -1562656590 -1970289883 -346623179</internalNodes>
          <leafValues>
            -4.3544560670852661e-01 4.4521313905715942e-01</leafValues></_>
        <_>
          <internalNodes>
            0 -1 209 -268435623 552645745 -168296656 166721780
            1073741194 1191051245 -1922566209 -704905217</internalNodes>
          <leafValues>
            -3.9398196339607239e-01 5.1403808593750000e-01</leafValues></_>
        <_>
          <internalNodes>
            0 -1 282 -262273 1841481882 1594069939 -528560100 -350748910
            -812168191 -754321840 -729886671</internalNodes>
          <leafValues>
            -5.7830518484115601e-01 3.7534692883491516e-01</leafValues></_>
        <_>
          <internalNodes>
            0 -1 67 480301026 1946257502 -805117250 2064368586
            -1039843090 495009987 1082348383 1229799947</internalNodes>
          <leafValues>
            -5.6252330541610718e-01 3.5528275370597839e-01</leafValues></_>
        <_>
          <internalNodes>
            0 -1 102 -276994337 -1225920519 -1090732034 -231834658
            -1644724634 -369132178 -1804292665 -1166475860</internalNodes>
          <leafValues>
            -4.4176560640335083e-01 4.8033258318901062e-01</leafValues></_>
        <_>
          <internalNodes>
            0 -1 150 -1451266895 -1344859784 -731721269 1023957777
            1984666697 -626507517 -90972484 -644330768</internalNodes>
          <leafValues>
            -4.9057668447494507e-01 4.1258642077445984e-01</leafValues></_>
        <_>
          <internalNodes>
            0 -1 8 -515276497 -851300081 1234178526 -138406400
            -1149230585 -1971093485 143302855 -170552665</internalNodes>
          <leafValues>
            -5.4938012361526489e-01 3.8039994239807129e-01</leafValues></_>
        <_>
          <internalNodes>
            0 -1 72 -318300097 -1433681723 1929494720 -488451641
            -1700353741 -296614898 -96836844 -68228156</internalNodes>
          <leafValues>
            -5.1513928174972534e-01 4.2979750037193298e-01</leafValues></_>
        <_>
          <internalNodes>
            0 -1 275 -2041320645 -1066389241 -796825451 -1413594182
            -1416916066 -373612024 -657749600 -267011596</internalNodes>
          <leafValues>
            -5.4962813854217529e-01 4.3567046523094177e-01</leafValues></_></weakClassifiers></_>
    <!-- stage 4 -->
    <_>
      <maxWeakCount>11</maxWeakCount>
      <stageThreshold>-9.6980965137481689e-01</stageThreshold>
      <weakClassifiers>
        <_>
          <internalNodes>
            0 -1 138 -723003376 -469318723 974180569 -866086825
            -618011884 -1198796610 -1865744117 8403951</internalNodes>
          <leafValues>
            -5.8995813131332397e-01 5.3676271438598633e-01</leafValues></_>
        <_>
          <internalNodes>
            0 -1 258 -1154508749 -300428465 -631160421 -153822292
            -586229665 -923030749 -1987924908 -1057691372</internalNodes>
          <leafValues>
            -5.5828195810317993e-01 4.0232503414154053e-01</leafValues></_>
        <_>
          <internalNodes>
            0 -1 129 -1099034881 -21004609 -1426149889 1991835063
            -276873615 -1091403925 -671088649 -289876264</internalNodes>
          <leafValues>
            -4.0561190247535706e-01 4.8717609047889709e-01</leafValues></_>
        <_>
          <internalNodes>
            0 -1 319 -34081781 -1059170281 -250784977 -923221928
            -190591708 -343039835 -1207846540 -822946571</internalNodes>
          <leafValues>
            -4.9929308891296387e-01 3.9366763830184937e-01</leafValues></_>
        <_>
          <internalNodes>
            0 -1 33 -603993497 -133438337 1752027287 -1103466281
            1996704565 -1138503669 -485467583 -26149895</internalNodes>
          <leafValues>
            -4.9894508719444275e-01 3.9275008440017700e-01</leafValues></_>
        <_>
          <internalNodes>
            0 -1 46 -572649222 -664993628 1879294074 -1057275421
            -611171829 1262649665 1905936107 498630059</internalNodes>
          <leafValues>
            -5.7423180341720581e-01 3.3418288826942444e-01</leafValues></_>
        <_>
          <internalNodes>
            0 -1 218 -2036441251 -1393471462 1344897221 -277702446
            -1148766157 -1878327158 -1743898124 -1674006352</internalNodes>
          <leafValues>
            -5.8400505781173706e-01 3.4998407959938049e-01</leafValues></_>
        <_>
          <internalNodes>
            0 -1 69 -1427120645 -942681930 -514733185 -1034247427
            -1635050635 1089961985 -1442670476 -86579252</internalNodes>
          <leafValues>
            -4.8571303486824036e-01 4.3531194329261780e-01</leafValues></_>
        <_>
          <internalNodes>
            0 -1 109 1148444054 1608008571 554996565 857756111 976962457
            -1694361845 991458299 516378843</internalNodes>
          <leafValues>
            -4.7278547286987305e-01 4.5454171299934387e-01</leafValues></_>
        <_>
          <internalNodes>
            0 -1 277 922693815 116705160 -141840301 1958529098
            1084096389 -394165751 -832839071 -1214713644</internalNodes>
          <leafValues>
            -4.9772697687149048e-01 4.2453020811080933e-01</leafValues></_>
        <_>
          <internalNodes>
            0 -1 235 -645948471 -599211781 -1610280513 179411148
            -234188024 -525672311 -1435898018 -860229093</internalNodes>
          <leafValues>
            -4.5585232973098755e-01 4.5445409417152405e-01</leafValues></_></weakClassifiers></_>
    <!-- stage 5 -->
    <_>
      <maxWeakCount>14</maxWeakCount>
      <stageThreshold>-9.0220230817794800e-01</stageThreshold>
      <weakClassifiers>
        <_>
          <internalNodes>
            0 -1 16 -151060988 -251741201 1141770792 2135949125
            -16859252 -2133583659 260971470 1083274803</internalNodes>
          <leafValues>
            -4.6064516901969910e-01 5.2722299098968506e-01</leafValues></_>
        <_>
          <internalNodes>
            0 -1 134 -14496268 900742709 -13107601 360054653 335826556
            -277022728 -546301746 -1646028433</internalNodes>
          <leafValues>
            -3.5757493972778320e-01 4.6758440136909485e-01</leafValues></_>
        <_>
          <internalNodes>
            0 -1 323 -17345057 -135407109 -218701057 -261103635
            -21954739 -296878514 -1389330753 -608506129</internalNodes>
          <leafValues>
            -2.5640439987182617e-01 6.5077787637710571e-01</leafValues></_>
        <_>
          <internalNodes>
            0 -1 145 -587653217 -798459971 -33620098 1591656190
            754949445 -1997865097 -1895899148 -22094132</internalNodes>
          <leafValues>
            -3.7640565633773804e-01 4.5420813560485840e-01</leafValues></_>
        <_>
          <internalNodes>
            0 -1 262 -2114729193 -1978789485 1413781848 1975747856
            -1350456770 -1993670614 -1981066940 -2139902111</internalNodes>
          <leafValues>
            -5.4347354173660278e-01 3.2458555698394775e-01</leafValues></_>
        <_>
          <internalNodes>
            0 -1 215 -862500111 1757198 1093288019 58445846 1349208712
            -1433435957 1276043 2353667</internalNodes>
          <leafValues>
            -5.4003435373306274e-01 3.0112430453300476e-01</leafValues></_>
        <_>
          <internalNodes>
            0 -1 198 -1609085399 -388775919 817964537 1510228374
            -1064768920 -2004244296 -1716979532 -521138224</internalNodes>
          <leafValues>
            -5.9817349910736084e-01 2.7149018645286560e-01</leafValues></_>
        <_>
          <internalNodes>
            0 -1 97 1412554467 -182235266 238378815 990990161
            -1640917056 1869635376 1257274138 1870091007</internalNodes>
          <leafValues>
            -3.4455579519271851e-01 5.3090506792068481e-01</leafValues></_>
        <_>
          <internalNodes>
            0 -1 29 -807940425 2146893566 796585718 -1411485986
            2134081364 -18448393 2117236667 -176717957</internalNodes>
          <leafValues>
            -3.8320970535278320e-01 4.7337254881858826e-01</leafValues></_>
        <_>
          <internalNodes>
            0 -1 87 -1610251101 -413327019 -669171297 -11173616
            -1451198201 -810973077 -1593668972 -735983295</internalNodes>
          <leafValues>
            -5.3961145877838135e-01 3.3558663725852966e-01</leafValues></_>
        <_>
          <internalNodes>
            0 -1 314 -1315373117 1296134592 -1862170189 -1747070947
            -2113318423 -2057715704 45850944 2136459341</internalNodes>
          <leafValues>
            -4.6135202050209045e-01 3.8681781291961670e-01</leafValues></_>
        <_>
          <internalNodes>
            0 -1 276 -1600311454 1313935784 -1777856361 849231974
            -956075195 -2119237626 -1344569184 -218971104</internalNodes>
          <leafValues>
            -5.1537322998046875e-01 3.5226541757583618e-01</leafValues></_>
        <_>
          <internalNodes>
            0 -1 95 -113559430 -861213523 -146871695 678263725 -4333787
            -1912864781 -1476593673 -289415169</internalNodes>
          <leafValues>
            -3.8588264584541321e-01 5.0775480270385742e-01</leafValues></_>
        <_>
          <internalNodes>
            0 -1 308 -566232081 1862073983 -4260142 -157229452
            -1074138795 -973752451 -162155065 -84963134</internalNodes>
          <leafValues>
            -3.8301405310630798e-01 5.0925910472869873e-01</leafValues></_></weakClassifiers></_>
    <!-- stage 6 -->
    <_>
      <maxWeakCount>14</maxWeakCount>
      <stageThreshold>-5.1593112945556641e-01</stageThreshold>
      <weakClassifiers>
        <_>
          <internalNodes>
            0 -1 9 -901211502 -1276707073 2147151791 2147480573
            2012958687 -1107886081 -404888228 1098215764</internalNodes>
          <leafValues>
            -2.3360353708267212e-01 6.1405789852142334e-01</leafValues></_>
        <_>
          <internalNodes>
            0 -1 44 -1095634184 -383751707 -201490443 -1082831827
            -1212547362 -2030568119 -1491879949 -208675379</internalNodes>
          <leafValues>
            -2.5163292884826660e-01 5.8409017324447632e-01</leafValues></_>
        <_>
          <internalNodes>
            0 -1 207 1883603170 353140790 -2130569088 1029447746
            12750068 134742210 1166544878 2100410330</internalNodes>
          <leafValues>
            -4.1889205574989319e-01 3.7715977430343628e-01</leafValues></_>
        <_>
          <internalNodes>
            0 -1 274 -1008818287 1605888 361865493 537572372 -2128387168
            -1936758645 -1199504688 -922889531</internalNodes>
          <leafValues>
            -6.1791276931762695e-01 2.8120714426040649e-01</leafValues></_>
        <_>
          <internalNodes>
            0 -1 4 -530937714 -942956289 1091061148 -810450443
            -402421112 -384811007 -1073651696 1428517474</internalNodes>
          <leafValues>
            -6.0274797677993774e-01 2.3121877014636993e-01</leafValues></_>
        <_>
          <internalNodes>
            0 -1 128 -57457090 -623091632 -903806572 1648380754
            -905575847 1620742181 -368525432 -94743668</internalNodes>
          <leafValues>
            -4.6533942222595215e-01 3.5771471261978149e-01</leafValues></_>
        <_>
          <internalNodes>
            0 -1 249 -816603097 -2004205494 -1098825486 -1162837118
            981704769 570540035 -754351434 -197741139</internalNodes>
          <leafValues>
            -4.3174150586128235e-01 3.8753867149353027e-01</leafValues></_>
        <_>
          <internalNodes>
            0 -1 239 1314276024 327463048 319033632 958988544 1401170347
            142745800 145805770 221251598</internalNodes>
          <leafValues>
            -5.8144527673721313e-01 2.9092562198638916e-01</leafValues></_>
        <_>
          <internalNodes>
            0 -1 148 -559229193 -247180927 339740507 352405137 271686828
            -1312789870 1191205561 1061542736</internalNodes>
          <leafValues>
            -4.3308135867118835e-01 4.0504300594329834e-01</leafValues></_>
        <_>
          <internalNodes>
            0 -1 177 1179353806 -682721088 163717376 -2122292964
            -1071677250 134219928 713167306 1285657983</internalNodes>
          <leafValues>
            -4.1720661520957947e-01 4.1087132692337036e-01</leafValues></_>
        <_>
          <internalNodes>
            0 -1 259 -176225778 269915651 -1139665669 15323730
            -1852595964 -1474264934 739166475 1288693795</internalNodes>
          <leafValues>
            -5.2915447950363159e-01 3.1109750270843506e-01</leafValues></_>
        <_>
          <internalNodes>
            0 -1 313 -1660364818 -882686584 1503781186 1066649613
            -1442066952 -1987919574 -1601527389 1531414553</internalNodes>
          <leafValues>
            -4.3453070521354675e-01 3.8994243741035461e-01</leafValues></_>
        <_>
          <internalNodes>
            0 -1 34 1147123707 -1747369894 -1929340729 -1566698414
            1473592177 -128565182 -1937518038 -718151917</internalNodes>
          <leafValues>
            -4.3999260663986206e-01 4.0229544043540955e-01</leafValues></_>
        <_>
          <internalNodes>
            0 -1 180 -1592293779 -501611885 -1073692522 810191232
            -1741559740 -2131619550 -1345550160 -1312368048</internalNodes>
          <leafValues>
            -4.6622818708419800e-01 3.7239271402359009e-01</leafValues></_></weakClassifiers></_>
    <!-- stage 7 -->
    <_>
      <maxWeakCount>16</maxWeakCount>
      <stageThreshold>-7.6150768995285034e-01</stageThreshold>
      <weakClassifiers>
        <_>
          <internalNodes>
            0 -1 137 -225 1073737719 -1409290501 -50335873 -150995337
            -302055425 -402655248 -1594425357</internalNodes>
          <leafValues>
            -1.5527950227260590e-01 6.0214692354202271e-01</leafValues></_>
        <_>
          <internalNodes>
            0 -1 52 -1289113629 -947011136 -1031043645 633702797
            -1431703573 -1953774713 -1844713865 2068831421</internalNodes>
          <leafValues>
            -3.5296213626861572e-01 4.3314886093139648e-01</leafValues></_>
        <_>
          <internalNodes>
            0 -1 39 -716209489 -645848625 1283478012 -871452326
            -2125829505 -81808791 -125190209 -145494489</internalNodes>
          <leafValues>
            -3.9194318652153015e-01 3.8674715161323547e-01</leafValues></_>
        <_>
          <internalNodes>
            0 -1 322 -36023985 -1045671718 807526599 -252882721
            -249419761 -99975104 -568687897 163244767</internalNodes>
          <leafValues>
            -3.9941272139549255e-01 3.7599393725395203e-01</leafValues></_>
        <_>
          <internalNodes>
            0 -1 184 -1395381403 601055247 -821352086 -1335457506
            -16261312 1292600968 -391457102 -134501701</internalNodes>
          <leafValues>
            -3.9508700370788574e-01 3.9827036857604980e-01</leafValues></_>
        <_>
          <internalNodes>
            0 -1 197 -990836935 -1172172242 -720793103 -1635378738
            -527703248 -668947966 -209540936 -393154096</internalNodes>
          <leafValues>
            -4.7598585486412048e-01 3.4374541044235229e-01</leafValues></_>
        <_>
          <internalNodes>
            0 -1 25 -358094609 -511202866 -1515093497 -549334474
            1918502757 -1596767932 16905240 -485270537</internalNodes>
          <leafValues>
            -3.8305401802062988e-01 4.0812873840332031e-01</leafValues></_>
        <_>
          <internalNodes>
            0 -1 108 -627851112 1932204307 1095274818 1899578306
            -97890664 1010437658 -1468396792 1396915818</internalNodes>
          <leafValues>
            -4.2910492420196533e-01 3.6945503950119019e-01</leafValues></_>
        <_>
          <internalNodes>
            0 -1 286 -1091307289 1593802270 -486802908 -700242129
            -537503889 -48832945 2078193523 -219271185</internalNodes>
          <leafValues>
            -3.8196581602096558e-01 4.0096592903137207e-01</leafValues></_>
        <_>
          <internalNodes>
            0 -1 196 36601792 392796240 10701585 659539036 25211290
            -1358675933 965065198 -315493738</internalNodes>
          <leafValues>
            -4.3680495023727417e-01 3.5591962933540344e-01</leafValues></_>
        <_>
          <internalNodes>
            0 -1 104 -1543061470 -1168272355 424845342 -1084587637
            -645764115 -1425336215 -1764897777 -2143945727</internalNodes>
          <leafValues>
            -4.9661362171173096e-01 3.2272076606750488e-01</leafValues></_>
        <_>
          <internalNodes>
            0 -1 251 -1056974672 1683129535 -1790639420 3887130
            -2012032896 -368926584 -1055281354 -1539854313</internalNodes>
          <leafValues>
            -5.7204437255859375e-01 2.6074323058128357e-01</leafValues></_>
        <_>
          <internalNodes>
            0 -1 171 1995472861 501708078 -118407324 2136029945
            1811016952 -1896677892 -1342390353 -133095489</internalNodes>
          <leafValues>
            -3.1754514575004578e-01 4.9885341525077820e-01</leafValues></_>
        <_>
          <internalNodes>
            0 -1 287 -1960664481 -318312449 -69833 1556455418 83490069
            -1509952697 -1184631424 -1006780644</internalNodes>
          <leafValues>
            -3.7955981492996216e-01 4.2017674446105957e-01</leafValues></_>
        <_>
          <internalNodes>
            0 -1 50 -218315057 -277951897 -17846531 -554962974
            -1082197135 -858916996 -403467052 -73468921</internalNodes>
          <leafValues>
            -3.3139505982398987e-01 5.0066274404525757e-01</leafValues></_>
        <_>
          <internalNodes>
            0 -1 202 -1073623346 -742326185 537001984 595594688
            554579181 965286016 -268115764 969592056</internalNodes>
          <leafValues>
            -4.2734828591346741e-01 3.6839410662651062e-01</leafValues></_></weakClassifiers></_>
    <!-- stage 8 -->
    <_>
      <maxWeakCount>17</maxWeakCount>
      <stageThreshold>-5.8226698637008667e-01</stageThreshold>
      <weakClassifiers>
        <_>
          <internalNodes>
            0 -1 312 -538422036 -134521364 2063595775 -490840706
            -297998838 -110822788 1681801167 1211764127</internalNodes>
          <leafValues>
            -1.1873713135719299e-01 5.8627647161483765e-01</leafValues></_>
        <_>
          <internalNodes>
            0 -1 44 -1665614401 -337372695 -201462805 1971178853
            -1212432389 -2038964359 -1214531721 990332233</internalNodes>
          <leafValues>
            -3.4082144498825073e-01 3.9147484302520752e-01</leafValues></_>
        <_>
          <internalNodes>
            0 -1 141 -990793482 1435811866 135430168 424784474 813928840
            404226072 1931681960 2101452787</internalNodes>
          <leafValues>
            -3.6299452185630798e-01 3.6845701932907104e-01</leafValues></_>
        <_>
          <internalNodes>
            0 -1 175 -544787009 417224986 1494702294 -1833773686
            -1969246405 -1415633749 -1010132819 -356988116</internalNodes>
          <leafValues>
            -3.9386659860610962e-01 3.4463718533515930e-01</leafValues></_>
        <_>
          <internalNodes>
            0 -1 260 122158867 75419782 -1039723136 222548637 1082269344
            -1903132023 -1685120543 -839520089</internalNodes>
          <leafValues>
            -4.9701282382011414e-01 2.6305440068244934e-01</leafValues></_>
        <_>
          <internalNodes>
            0 -1 90 -129082668 1581272595 -784234049 176329089
            -2013208191 1951500450 1498076642 470080272</internalNodes>
          <leafValues>
            -6.2906932830810547e-01 2.2963848710060120e-01</leafValues></_>
        <_>
          <internalNodes>
            0 -1 250 -655887140 1497382964 -1047986175 290066480
            12853418 -1940914103 536875148 154384959</internalNodes>
          <leafValues>
            -3.9895987510681152e-01 3.6316674947738647e-01</leafValues></_>
        <_>
          <internalNodes>
            0 -1 32 1263429594 -120807206 -1475968932 743575238
            805797441 -593477885 1227925769 1897032515</internalNodes>
          <leafValues>
            -6.2222743034362793e-01 2.2445340454578400e-01</leafValues></_>
        <_>
          <internalNodes>
            0 -1 70 -619615497 793650943 -1342783529 1834339859
            -14625576 -588204560 -330766637 -2658345</internalNodes>
          <leafValues>
            -2.9937750101089478e-01 5.0250840187072754e-01</leafValues></_>
        <_>
          <internalNodes>
            0 -1 1 -674037425 281363340 1610638408 1083791899 -696108532
            -1539801080 -1207382853 169614331</internalNodes>
          <leafValues>
            -4.4803220033645630e-01 3.5279229283332825e-01</leafValues></_>
        <_>
          <internalNodes>
            0 -1 5 38711690 -511486305 1429062849 -269381289 1485638824
            -1666498560 -1027783627 73757042</internalNodes>
          <leafValues>
            -5.6421446800231934e-01 2.5040033459663391e-01</leafValues></_>
        <_>
          <internalNodes>
            0 -1 271 -27322624 -740641800 -1325290751 -2141796106
            -524981959 -2147175803 1527861535 217896983</internalNodes>
          <leafValues>
            -6.1687994003295898e-01 2.3129862546920776e-01</leafValues></_>
        <_>
          <internalNodes>
            0 -1 217 -1561885598 -94943850 -2122218204 -211545846
            -1987830287 -1576400493 -91495316 -236521032</internalNodes>
          <leafValues>
            -3.7702485918998718e-01 3.8731387257575989e-01</leafValues></_>
        <_>
          <internalNodes>
            0 -1 203 -1304196345 -1936326587 -2029485515 1045843988
            489299970 1688428847 -1591243820 -707334731</internalNodes>
          <leafValues>
            -4.5310655236244202e-01 3.3229878544807434e-01</leafValues></_>
        <_>
          <internalNodes>
            0 -1 131 -334052206 -1630662369 -2147121643 -620703631
            177799605 -150847060 -1816962657 142289150</internalNodes>
          <leafValues>
            -4.2333939671516418e-01 3.6820828914642334e-01</leafValues></_>
        <_>
          <internalNodes>
            0 -1 306 -1743656588 -980876919 -644722399 -1814695668
            257435 1791043594 -1293234062 393711632</internalNodes>
          <leafValues>
            -4.4639858603477478e-01 3.3941367268562317e-01</leafValues></_>
        <_>
          <internalNodes>
            0 -1 302 -1056328942 -2084175865 -247389772 -255294324
            906220128 -997162494 -1819721040 -1426344831</internalNodes>
          <leafValues>
            -4.9432155489921570e-01 3.1765440106391907e-01</leafValues></_></weakClassifiers></_>
    <!-- stage 9 -->
    <_>
      <maxWeakCount>18</maxWeakCount>
      <stageThreshold>-1.0343277454376221e+00</stageThreshold>
      <weakClassifiers>
        <_>
          <internalNodes>
            0 -1 280 -1396705375 8317991 2147483509 -923210248
            -1141538896 -805969929 -1250197680 -1661969296</internalNodes>
          <leafValues>
            -4.0157479047775269e-01 5.1145040988922119e-01</leafValues></_>
        <_>
          <internalNodes>
            0 -1 62 -1178992645 -277914199 -479806477 -13247091
            -1078330213 -927268887 -1112866845 -268444167</internalNodes>
          <leafValues>
            -2.1605405211448669e-01 5.8380663394927979e-01</leafValues></_>
        <_>
          <internalNodes>
            0 -1 120 -536392005 1534271638 -2139053603 -254143589
            -1718081507 -66567654 -761020674 -93138200</internalNodes>
          <leafValues>
            -3.4844517707824707e-01 3.9812576770782471e-01</leafValues></_>
        <_>
          <internalNodes>
            0 -1 7 -304485597 -373813238 -1458563094 -841600752
            1820862647 -568817131 1040324532 -135953897</internalNodes>
          <leafValues>
            -4.9927005171775818e-01 2.7223509550094604e-01</leafValues></_>
        <_>
          <internalNodes>
            0 -1 304 -5287685 -419472267 1123934967 -755023925
            -1735205105 -10551474 -574758721 -5573121</internalNodes>
          <leafValues>
            -2.8542983531951904e-01 5.2194064855575562e-01</leafValues></_>
        <_>
          <internalNodes>
            0 -1 136 -825524641 -355623535 -1992252935 -356384686
            -1429577119 -2004801525 -234636398 -99159806</internalNodes>
          <leafValues>
            -3.8060563802719116e-01 3.6907577514648438e-01</leafValues></_>
        <_>
          <internalNodes>
            0 -1 169 -1726797215 -82498758 3215664 462700065 -2146108518
            511968128 721283726 698948688</internalNodes>
          <leafValues>
            -5.1002198457717896e-01 2.8840866684913635e-01</leafValues></_>
        <_>
          <internalNodes>
            0 -1 317 -775753715 -1024944813 -738130849 -761625850
            -217994718 -1735327695 1770241014 -99462720</internalNodes>
          <leafValues>
            -4.0771281719207764e-01 3.4668120741844177e-01</leafValues></_>
        <_>
          <internalNodes>
            0 -1 226 -650226537 -901664167 1974735135 -200637538
            -396844211 -147717876 -74798088 -352816964</internalNodes>
          <leafValues>
            -3.8463807106018066e-01 3.6864998936653137e-01</leafValues></_>
        <_>
          <internalNodes>
            0 -1 66 -768882014 1968021835 328737 444764805 -627012166
            270205056 -1411618363 1317920839</internalNodes>
          <leafValues>
            -5.0698632001876831e-01 2.8155484795570374e-01</leafValues></_>
        <_>
          <internalNodes>
            0 -1 237 -423646939 1753366972 -1072590800 -1897232950
            144438365 1128857626 -477519840 -201591050</internalNodes>
          <leafValues>
            -4.0554302930831909e-01 3.8029342889785767e-01</leafValues></_>
        <_>
          <internalNodes>
            0 -1 307 261879777 -318618368 -2129639120 966214849
            -1181958102 -1040055132 -1111306046 521655345</internalNodes>
          <leafValues>
            -4.4372770190238953e-01 3.4934422373771667e-01</leafValues></_>
        <_>
          <internalNodes>
            0 -1 105 -900399104 -1203162874 1091593593 -1425997021
            -2003058604 -337458533 -385748781 1152443493</internalNodes>
          <leafValues>
            -7.1363240480422974e-01 2.0342008769512177e-01</leafValues></_>
        <_>
          <internalNodes>
            0 -1 114 551488095 -1014488506 -801082733 -767897202
            699548028 1084391562 1084983704 -396203110</internalNodes>
          <leafValues>
            -5.0201767683029175e-01 2.8116288781166077e-01</leafValues></_>
        <_>
          <internalNodes>
            0 -1 183 -899489771 -1207795712 454101043 -619830692
            -896007964 -1981120512 -1580980212 302745016</internalNodes>
          <leafValues>
            -4.5224225521087646e-01 3.3234158158302307e-01</leafValues></_>
        <_>
          <internalNodes>
            0 -1 223 620500874 -1090191433 -402770000 -68108362
            -402727425 643694575 1694495998 -169349137</internalNodes>
          <leafValues>
            -3.0355635285377502e-01 4.9470070004463196e-01</leafValues></_>
        <_>
          <internalNodes>
            0 -1 51 -1231474711 1186996353 1073770577 940151185
            -1744140229 -1427599360 -1734115243 999800968</internalNodes>
          <leafValues>
            -4.8547729849815369e-01 3.3101701736450195e-01</leafValues></_>
        <_>
          <internalNodes>
            0 -1 186 -39399683 -761483585 1988000829 929634041
            -998404111 -319978763 -63144449 -1151624897</internalNodes>
          <leafValues>
            -2.7038955688476562e-01 5.9011226892471313e-01</leafValues></_></weakClassifiers></_>
    <!-- stage 10 -->
    <_>
      <maxWeakCount>16</maxWeakCount>
      <stageThreshold>-1.1235547065734863e+00</stageThreshold>
      <weakClassifiers>
        <_>
          <internalNodes>
            0 -1 76 -43793198 1998663298 1818641490 560156276 142115992
            -1106096880 171004632 1510148690</internalNodes>
          <leafValues>
            -1.3713212311267853e-01 6.3148605823516846e-01</leafValues></_>
        <_>
          <internalNodes>
            0 -1 83 1529082098 401126108 -1561137461 1743380187
            -970922304 -321324560 1667415551 -78389605</internalNodes>
          <leafValues>
            -2.5450032949447632e-01 5.4500877857208252e-01</leafValues></_>
        <_>
          <internalNodes>
            0 -1 220 -252722518 836840872 871018530 1910880802
            1172714462 1179123669 1085732750 1110176527</internalNodes>
          <leafValues>
            -3.2586437463760376e-01 4.3512207269668579e-01</leafValues></_>
        <_>
          <internalNodes>
            0 -1 316 -1221266690 -1616409408 1425926129 1607538165
            -1665351746 247345016 471914477 1527995857</internalNodes>
          <leafValues>
            -3.4594076871871948e-01 4.0914964675903320e-01</leafValues></_>
        <_>
          <internalNodes>
            0 -1 143 -36318175 -767471232 -1996435317 486625416
            -1941897074 -368508787 -1342082427 -1726201620</internalNodes>
          <leafValues>
            -4.0566715598106384e-01 3.4701845049858093e-01</leafValues></_>
        <_>
          <internalNodes>
            0 -1 265 -241971064 -1727856248 268455953 1358954514
            537018858 -1987411968 637550635 1147326522</internalNodes>
          <leafValues>
            -4.4969397783279419e-01 3.3213260769844055e-01</leafValues></_>
        <_>
          <internalNodes>
            0 -1 13 -112649992 -670539774 1611731163 -219721653
            -2080317106 -1136656320 -914322257 244992203</internalNodes>
          <leafValues>
            -4.0214663743972778e-01 3.9070311188697815e-01</leafValues></_>
        <_>
          <internalNodes>
            0 -1 256 1561849986 -1391984528 553765397 151584768
            -2113219958 -291897341 -2046717807 -2111340157</internalNodes>
          <leafValues>
            -3.9519685506820679e-01 3.7509992718696594e-01</leafValues></_>
        <_>
          <internalNodes>
            0 -1 216 -1472814904 -490176511 -1878994736 -132988856
            -1064794048 1169231906 -1978994256 -796726448</internalNodes>
          <leafValues>
            -4.7419503331184387e-01 3.2873702049255371e-01</leafValues></_>
        <_>
          <internalNodes>
            0 -1 153 -784080933 -1048535043 273685881 -709773835
            -1117741319 -1376719376 -646406178 -638852421</internalNodes>
          <leafValues>
            -2.2346378862857819e-01 7.5975787639617920e-01</leafValues></_>
        <_>
          <internalNodes>
            0 -1 188 1145114672 814026761 69243021 319429011 419463644
            -1962802464 93483770 571684522</internalNodes>
          <leafValues>
            -5.6122571229934692e-01 3.0829712748527527e-01</leafValues></_>
        <_>
          <internalNodes>
            0 -1 221 1380373618 421072908 -1056945901 344031234
            153104570 -1979645888 754 -634797161</internalNodes>
          <leafValues>
            -3.4177049994468689e-01 4.4397616386413574e-01</leafValues></_>
        <_>
          <internalNodes>
            0 -1 63 -191150852 -83945859 788426430 -265338428 -54243826
            -666484883 117327343 179027391</internalNodes>
          <leafValues>
            -3.6786040663719177e-01 4.1409346461296082e-01</leafValues></_>
        <_>
          <internalNodes>
            0 -1 147 -1910581673 -865337139 1094799429 759169110
            -1299629950 -637009743 589449766 -578256175</internalNodes>
          <leafValues>
            -3.5366666316986084e-01 4.4004261493682861e-01</leafValues></_>
        <_>
          <internalNodes>
            0 -1 208 416425144 1901363332 6522 1305025026 -2147424128
            -939376512 538515643 142610982</internalNodes>
          <leafValues>
            -5.8933073282241821e-01 2.8158676624298096e-01</leafValues></_>
        <_>
          <internalNodes>
            0 -1 222 -384857498 570560544 1644380248 -1059159294
            -1064828920 35782664 -1205682030 -189613319</internalNodes>
          <leafValues>
            -4.6350449323654175e-01 3.4084779024124146e-01</leafValues></_></weakClassifiers></_>
    <!-- stage 11 -->
    <_>
      <maxWeakCount>19</maxWeakCount>
      <stageThreshold>-5.9151464700698853e-01</stageThreshold>
      <weakClassifiers>
        <_>
          <internalNodes>
            0 -1 323 -1157896 1940675070 -218697090 1089362669
            -585831348 -12124594 -1237789281 1158217711</internalNodes>
          <leafValues>
            -1.2673993408679962e-01 5.6867861747741699e-01</leafValues></_>
        <_>
          <internalNodes>
            0 -1 81 -623118110 -1073966939 33624532 768414686 -629112120
            -1129152512 184748112 -1738438186</internalNodes>
          <leafValues>
            -3.6582550406455994e-01 3.5096117854118347e-01</leafValues></_>
        <_>
          <internalNodes>
            0 -1 10 -1067980321 -971042539 218106335 -578781031
            -2003265461 -897023480 -1702309441 -979264781</internalNodes>
          <leafValues>
            -3.3272010087966919e-01 3.6478680372238159e-01</leafValues></_>
        <_>
          <internalNodes>
            0 -1 41 -1148257025 -1358327600 -654057001 -308957052
            -1727286787 -360021877 -1870534987 1493684417</internalNodes>
          <leafValues>
            -3.4763586521148682e-01 3.7247309088706970e-01</leafValues></_>
        <_>
          <internalNodes>
            0 -1 93 -1704997680 -638524969 1628483703 496488538
            -934147846 -826457955 1392509710 1222318340</internalNodes>
          <leafValues>
            -4.2496481537818909e-01 3.0033463239669800e-01</leafValues></_>
        <_>
          <internalNodes>
            0 -1 17 -653633036 -196058808 1344372895 -234135023
            -918113526 -1878917110 169921695 556422559</internalNodes>
          <leafValues>
            -3.7253144383430481e-01 3.5142317414283752e-01</leafValues></_>
        <_>
          <internalNodes>
            0 -1 23 -356666 1072688686 -133 1299414907 1182613460
            -864684419 1400075768 -93063557</internalNodes>
          <leafValues>
            -3.0380609631538391e-01 4.5374912023544312e-01</leafValues></_>
        <_>
          <internalNodes>
            0 -1 35 -669656357 -607053630 278686 71331952 34312280
            688005152 -1048508012 -737052326</internalNodes>
          <leafValues>
            -4.9070432782173157e-01 3.0557754635810852e-01</leafValues></_>
        <_>
          <internalNodes>
            0 -1 163 -716864855 -363593658 687886811 1511027289
            999541248 1847083137 992518656 146068735</internalNodes>
          <leafValues>
            -6.2452709674835205e-01 1.9746232032775879e-01</leafValues></_>
        <_>
          <internalNodes>
            0 -1 269 -855906864 -2042592556 285315280 -143224566
            -1327697855 -2121760768 -1127710480 -596709136</internalNodes>
          <leafValues>
            -3.9596629142761230e-01 3.4429624676704407e-01</leafValues></_>
        <_>
          <internalNodes>
            0 -1 303 -573782862 -1369787620 550584432 -1164967612
            -1475628730 -889061375 595773856 -644431453</internalNodes>
          <leafValues>
            -4.2440742254257202e-01 3.2421055436134338e-01</leafValues></_>
        <_>
          <internalNodes>
            0 -1 246 -1035009763 784994569 -2125721580 -1164652400
            -914310196 68321409 -520902496 -255945808</internalNodes>
          <leafValues>
            -4.1097721457481384e-01 3.3712550997734070e-01</leafValues></_>
        <_>
          <internalNodes>
            0 -1 135 -490797026 427819456 -2009546401 1894944784
            143343624 -535887806 168542688 -124106055</internalNodes>
          <leafValues>
            -4.4981473684310913e-01 2.9535421729087830e-01</leafValues></_>
        <_>
          <internalNodes>
            0 -1 132 1062468313 1462614382 -1496291333 -2021542120
            -1115638646 -1629223744 1597829501 -635840302</internalNodes>
          <leafValues>
            -3.0477297306060791e-01 5.1985317468643188e-01</leafValues></_>
        <_>
          <internalNodes>
            0 -1 110 -1874899758 -568503329 1592688561 -1090617667
            -766877814 806031803 494229842 -2108688934</internalNodes>
          <leafValues>
            -3.3032903075218201e-01 4.2541971802711487e-01</leafValues></_>
        <_>
          <internalNodes>
            0 -1 172 -666046319 1636495639 276973729 222400913
            -1952701824 -1458895616 285788171 723423481</internalNodes>
          <leafValues>
            -4.2266738414764404e-01 3.5472640395164490e-01</leafValues></_>
        <_>
          <internalNodes>
            0 -1 194 1416619018 2000031366 922401904 2002856626
            -570553354 978619846 225885387 2068184559</internalNodes>
          <leafValues>
            -3.4159296751022339e-01 4.4415196776390076e-01</leafValues></_>
        <_>
          <internalNodes>
            0 -1 279 -1337077519 -1035529974 -779550704 2009632784
            -1968524330 -897023800 -720862619 198157355</internalNodes>
          <leafValues>
            -3.9356064796447754e-01 3.8799688220024109e-01</leafValues></_>
        <_>
          <internalNodes>
            0 -1 264 -1349879561 -530509552 823203033 -257978352 2339261
            -1683980287 436256913 -22664736</internalNodes>
          <leafValues>
            -4.0475523471832275e-01 3.7817162275314331e-01</leafValues></_></weakClassifiers></_>
    <!-- stage 12 -->
    <_>
      <maxWeakCount>20</maxWeakCount>
      <stageThreshold>-6.0826474428176880e-01</stageThreshold>
      <weakClassifiers>
        <_>
          <internalNodes>
            0 -1 232 -582001135 -644981162 2080374399 184483582
            -629303979 -624099586 -152109514 5701111</internalNodes>
          <leafValues>
            -2.5341746211051941e-01 5.2055186033248901e-01</leafValues></_>
        <_>
          <internalNodes>
            0 -1 321 -639083028 -8574470 1929368251 -788652929
            -1667201970 -848519560 1409863407 1219161531</internalNodes>
          <leafValues>
            -3.4882032871246338e-01 3.5792860388755798e-01</leafValues></_>
        <_>
          <internalNodes>
            0 -1 139 1342302922 454789451 273285602 1157730774
            -1362555490 -234836864 -798416198 68396491</internalNodes>
          <leafValues>
            -3.5136014223098755e-01 3.4883353114128113e-01</leafValues></_>
        <_>
          <internalNodes>
            0 -1 38 -1905555201 -430296809 -2013163201 1250445525
            -795898784 -930363007 1243736817 -1894951979</internalNodes>
          <leafValues>
            -4.0024173259735107e-01 3.0349260568618774e-01</leafValues></_>
        <_>
          <internalNodes>
            0 -1 144 -366494917 -402124790 236016123 1481830426
            -930316276 -392656832 -1294982716 -895292258</internalNodes>
          <leafValues>
            -3.5984149575233459e-01 3.4152233600616455e-01</leafValues></_>
        <_>
          <internalNodes>
            0 -1 210 749348691 -20707318 453530011 290526232 -1610011676
            -1950179198 -1809839926 -279201014</internalNodes>
          <leafValues>
            -3.9694219827651978e-01 3.0614647269248962e-01</leafValues></_>
        <_>
          <internalNodes>
            0 -1 230 -211822669 1095682132 -2061004520 -679292743
            709079503 -909573167 1350568368 -857094024</internalNodes>
          <leafValues>
            -4.0020048618316650e-01 3.2129967212677002e-01</leafValues></_>
        <_>
          <internalNodes>
            0 -1 181 -1705419682 -2054078128 -1726843821 423661972
            -2009284152 960086786 -2011927368 191328273</internalNodes>
          <leafValues>
            -4.7288292646408081e-01 2.8020471334457397e-01</leafValues></_>
        <_>
          <internalNodes>
            0 -1 178 -2067398142 576597264 1073840838 -763309776
            -500547584 8519682 884621572 -221851742</internalNodes>
          <leafValues>
            -5.5723309516906738e-01 2.5250411033630371e-01</leafValues></_>
        <_>
          <internalNodes>
            0 -1 318 -95755777 -347928124 1628488155 -456373419
            -1878471936 176685192 688575138 -157306755</internalNodes>
          <leafValues>
            -3.8586086034774780e-01 3.4910407662391663e-01</leafValues></_>
        <_>
          <internalNodes>
            0 -1 126 1482188921 -717081790 17303877 -1306521598
            178002488 866658626 -1996486197 2020041530</internalNodes>
          <leafValues>
            -4.5918390154838562e-01 2.8145965933799744e-01</leafValues></_>
        <_>
          <internalNodes>
            0 -1 315 -1700210858 -1916675695 -1341312943 1066277081
            -1744252693 -936476640 -1610465086 1528028620</internalNodes>
          <leafValues>
            -3.9986452460289001e-01 3.2995292544364929e-01</leafValues></_>
        <_>
          <internalNodes>
            0 -1 253 -2073822059 -2089750440 17829976 1177813150 33691
            -1622363830 -1048407882 349425775</internalNodes>
          <leafValues>
            -3.9511698484420776e-01 3.3485651016235352e-01</leafValues></_>
        <_>
          <internalNodes>
            0 -1 30 1687322846 -838066108 -1877818479 1481703433
            -1029129644 -1426030582 -1467825837 -927825270</internalNodes>
          <leafValues>
            -4.0699249505996704e-01 3.4595513343811035e-01</leafValues></_>
        <_>
          <internalNodes>
            0 -1 206 1967624866 -1178226554 268501584 -103733802
            -1027569757 1260269955 279201906 1529459163</internalNodes>
          <leafValues>
            -3.5128352046012878e-01 3.9575764536857605e-01</leafValues></_>
        <_>
          <internalNodes>
            0 -1 80 -836055161 -890881864 -823984461 -264855831
            -1881678260 1851752279 2144636402 -69839434</internalNodes>
          <leafValues>
            -3.3070549368858337e-01 4.1518187522888184e-01</leafValues></_>
        <_>
          <internalNodes>
            0 -1 130 -2045394813 2081358338 318822863 -119697007
            -385092930 -90374000 -1689185852 197372353</internalNodes>
          <leafValues>
            -3.8826364278793335e-01 3.5842713713645935e-01</leafValues></_>
        <_>
          <internalNodes>
            0 -1 179 1557686466 1363239118 -1071447852 352899590
            864259726 324116994 23815310 2086783278</internalNodes>
          <leafValues>
            -4.1428685188293457e-01 3.5871863365173340e-01</leafValues></_>
        <_>
          <internalNodes>
            0 -1 201 1089496302 -1930842388 -1661853972 -72601923
            -1659458201 -1103863820 268369903 -322482550</internalNodes>
          <leafValues>
            -3.5241633653640747e-01 4.2712172865867615e-01</leafValues></_>
        <_>
          <internalNodes>
            0 -1 268 -1440874157 -1571160048 -916311850 -1668099456
            1108377849 -2122137216 -1165991759 -1360336368</internalNodes>
          <leafValues>
            -4.6700364351272583e-01 3.1308475136756897e-01</leafValues></_></weakClassifiers></_>
    <!-- stage 13 -->
    <_>
      <maxWeakCount>21</maxWeakCount>
      <stageThreshold>-7.5971740484237671e-01</stageThreshold>
      <weakClassifiers>
        <_>
          <internalNodes>
            0 -1 306 -1635534104 -1383400008 -1543504990 858348417
            -1480853874 -1922834610 842074034 2138545389</internalNodes>
          <leafValues>
            -4.6875000000000000e-02 5.9580624103546143e-01</leafValues></_>
        <_>
          <internalNodes>
            0 -1 85 -125543717 -527592249 -1072578351 -934520799
            -502748585 -629014520 1664723191 -1954100509</internalNodes>
          <leafValues>
            -3.3483368158340454e-01 3.6904257535934448e-01</leafValues></_>
        <_>
          <internalNodes>
            0 -1 281 -157319647 -665972539 1136906497 604652228
            -527535777 -1978758520 -1021361337 82235415</internalNodes>
          <leafValues>
            -4.7680446505546570e-01 2.4037143588066101e-01</leafValues></_>
        <_>
          <internalNodes>
            0 -1 21 316076719 -573140433 17750733 -552324976 -1895652864
            990093318 -1311854734 1768145665</internalNodes>
          <leafValues>
            -4.0033191442489624e-01 2.9156354069709778e-01</leafValues></_>
        <_>
          <internalNodes>
            0 -1 298 -1545613249 -1585004221 1375850810 -690990446
            -339500507 1249935649 127484869 -137000716</internalNodes>
          <leafValues>
            -4.1772824525833130e-01 2.7610552310943604e-01</leafValues></_>
        <_>
          <internalNodes>
            0 -1 43 -2021592104 -306167643 -1850375727 -1617198959
            -1081492998 -880213815 -1526467849 1599979677</internalNodes>
          <leafValues>
            -4.0036347508430481e-01 2.8368741273880005e-01</leafValues></_>
        <_>
          <internalNodes>
            0 -1 99 -385617317 -178760395 16977814 1633702206
            -2138324792 -1694498688 353020080 1315401186</internalNodes>
          <leafValues>
            -3.6408144235610962e-01 3.4252908825874329e-01</leafValues></_>
        <_>
          <internalNodes>
            0 -1 149 -796121086 968884360 -267759108 953713392
            -1383449572 -1589935936 -1199238996 -1563261200</internalNodes>
          <leafValues>
            -4.2380791902542114e-01 2.8122830390930176e-01</leafValues></_>
        <_>
          <internalNodes>
            0 -1 103 -356973845 -774238186 1140899888 1378484364
            -1467416264 -1457516542 -834094630 -90125670</internalNodes>
          <leafValues>
            -3.6449429392814636e-01 3.3331707119941711e-01</leafValues></_>
        <_>
          <internalNodes>
            0 -1 15 -859657538 -361115255 -2113780613 1157742233
            -1330951952 -2112323540 21964880 -1721548205</internalNodes>
          <leafValues>
            -4.2249205708503723e-01 3.1100311875343323e-01</leafValues></_>
        <_>
          <internalNodes>
            0 -1 68 2102259826 504738463 -1002389492 1671056010
            1356482090 -58720120 1753417844 1489655432</internalNodes>
          <leafValues>
            -5.0557678937911987e-01 2.4181836843490601e-01</leafValues></_>
        <_>
          <internalNodes>
            0 -1 170 -1335437615 452205269 -1358972682 -693092612
            -1426180977 -273744175 -1426081556 -71570693</internalNodes>
          <leafValues>
            -2.7337491512298584e-01 4.6789529919624329e-01</leafValues></_>
        <_>
          <internalNodes>
            0 -1 219 -858810240 -675308801 502623407 1571216062
            -838949703 -1381434630 2088173053 -1474953490</internalNodes>
          <leafValues>
            -3.3526363968849182e-01 3.9862766861915588e-01</leafValues></_>
        <_>
          <internalNodes>
            0 -1 78 -632592730 -1459539685 -2129640291 -1378546680
            -1475720428 -598054806 -1601062306 1801808146</internalNodes>
          <leafValues>
            -4.4005078077316284e-01 2.9343160986900330e-01</leafValues></_>
        <_>
          <internalNodes>
            0 -1 165 -1865070590 1724141953 1951481908 -1841004090
            -1452758494 1107304578 -928349514 -762187033</internalNodes>
          <leafValues>
            -4.9260056018829346e-01 2.8169533610343933e-01</leafValues></_>
        <_>
          <internalNodes>
            0 -1 290 -1592644149 -481587056 -2128801678 1125187957
            -1203525492 -1689607964 42119847 2135677851</internalNodes>
          <leafValues>
            -3.6649757623672485e-01 3.9221161603927612e-01</leafValues></_>
        <_>
          <internalNodes>
            0 -1 156 -267199803 1659762646 -1039974049 756624720
            -398448054 -599234128 1619622696 -1913722380</internalNodes>
          <leafValues>
            -3.9104661345481873e-01 3.3542531728744507e-01</leafValues></_>
        <_>
          <internalNodes>
            0 -1 100 1939857766 1369150248 1251536 454045338 239354824
            1510498376 681642564 2098196834</internalNodes>
          <leafValues>
            -4.1524714231491089e-01 3.2951676845550537e-01</leafValues></_>
        <_>
          <internalNodes>
            0 -1 320 1459638676 -231686128 1243807903 -764669516
            -1602217914 -1954512574 -742088522 245015531</internalNodes>
          <leafValues>
            -4.2426052689552307e-01 3.3010455965995789e-01</leafValues></_>
        <_>
          <internalNodes>
            0 -1 238 -2011968639 1761843267 1359097866 -758688880
            -1039237115 151554178 -1853517678 -190094340</internalNodes>
          <leafValues>
            -3.7977865338325500e-01 3.9664223790168762e-01</leafValues></_>
        <_>
          <internalNodes>
            0 -1 254 -286602023 -23043421 -1347437195 -1421914830
            -1514406435 -1501594249 41680149 -518550277</internalNodes>
          <leafValues>
            -2.8953298926353455e-01 4.6713602542877197e-01</leafValues></_></weakClassifiers></_>
    <!-- stage 14 -->
    <_>
      <maxWeakCount>17</maxWeakCount>
      <stageThreshold>-9.6529567241668701e-01</stageThreshold>
      <weakClassifiers>
        <_>
          <internalNodes>
            0 -1 0 -34581272 -252879368 1392464618 1655002300 -583475442
            256703822 154836367 1208536571</internalNodes>
          <leafValues>
            -1.2765957415103912e-01 5.5812460184097290e-01</leafValues></_>
        <_>
          <internalNodes>
            0 -1 296 -407177661 -423956325 -792325769 -288321344
            -210573050 -1986297333 -1054113536 -656234732</internalNodes>
          <leafValues>
            -4.5542836189270020e-01 2.7533444762229919e-01</leafValues></_>
        <_>
          <internalNodes>
            0 -1 98 355204830 -1074935824 -578888519 1039876861
            -43450965 -1202960813 -48413301 -1715086335</internalNodes>
          <leafValues>
            -3.2795614004135132e-01 3.5368534922599792e-01</leafValues></_>
        <_>
          <internalNodes>
            0 -1 31 1382376703 1544882719 436246551 642271346 1629821749
            -1186781162 1905191464 -199199894</internalNodes>
          <leafValues>
            -4.5231312513351440e-01 2.4226982891559601e-01</leafValues></_>
        <_>
          <internalNodes>
            0 -1 289 -1244620593 -820936369 -1475772393 1120538877
            2013450254 2048532994 -402474969 1531529983</internalNodes>
          <leafValues>
            -4.3182009458541870e-01 2.4935980141162872e-01</leafValues></_>
        <_>
          <internalNodes>
            0 -1 167 -654416560 521716822 21556 -2081268778 591848088
            983048336 -157314531 1042219708</internalNodes>
          <leafValues>
            -5.2051264047622681e-01 2.0391674339771271e-01</leafValues></_>
        <_>
          <internalNodes>
            0 -1 244 -201668161 487235130 469513523 1035177120 679279294
            -570769475 968633848 -101080334</internalNodes>
          <leafValues>
            -2.4677620828151703e-01 4.7599387168884277e-01</leafValues></_>
        <_>
          <internalNodes>
            0 -1 243 -1190732737 -1424371712 1350669398 -1836542527
            -1849652867 1629817538 -746336176 -793491132</internalNodes>
          <leafValues>
            -5.4097491502761841e-01 2.2050771117210388e-01</leafValues></_>
        <_>
          <internalNodes>
            0 -1 73 -1173163805 -2087993215 -1727702549 786733 563672082
            34080793 285471495 1337704873</internalNodes>
          <leafValues>
            -4.8809278011322021e-01 2.4622900784015656e-01</leafValues></_>
        <_>
          <internalNodes>
            0 -1 240 -1059876816 906379978 12632087 -858421246
            1099125261 -1672413183 352422683 -1531715582</internalNodes>
          <leafValues>
            -4.3275141716003418e-01 2.9852995276451111e-01</leafValues></_>
        <_>
          <internalNodes>
            0 -1 293 -1819239792 -1480079864 276872593 1393119413
            -1325212913 -896663509 -771534827 993233088</internalNodes>
          <leafValues>
            -4.1458821296691895e-01 2.9060432314872742e-01</leafValues></_>
        <_>
          <internalNodes>
            0 -1 117 -99172097 1384386833 1904267539 860361552
            -896945920 -78807039 1099063784 -14100055</internalNodes>
          <leafValues>
            -3.7860238552093506e-01 3.2557705044746399e-01</leafValues></_>
        <_>
          <internalNodes>
            0 -1 53 709356258 -497840119 1367419506 1326841858
            1744834261 -97255424 424236020 1158091636</internalNodes>
          <leafValues>
            -6.4351308345794678e-01 2.1203918755054474e-01</leafValues></_>
        <_>
          <internalNodes>
            0 -1 161 -1822944622 -1872868111 -1853779773 -1305472830
            545835034 -1417510776 -939284259 -204289624</internalNodes>
          <leafValues>
            -3.8268280029296875e-01 3.3735457062721252e-01</leafValues></_>
        <_>
          <internalNodes>
            0 -1 18 -2005939562 -621977602 -294691201 -1350726017
            -822087747 -144323212 -432541704 -948701401</internalNodes>
          <leafValues>
            -3.0142629146575928e-01 4.2450594902038574e-01</leafValues></_>
        <_>
          <internalNodes>
            0 -1 213 2105579713 1065711050 542737 944703629 -1589333317
            -1928656382 -1987833137 -1913708006</internalNodes>
          <leafValues>
            -3.3225110173225403e-01 3.8028469681739807e-01</leafValues></_>
        <_>
          <internalNodes>
            0 -1 124 -1071778961 458555727 -1475837456 269746512
            -1404343955 1149796386 -1710710048 -201592162</internalNodes>
          <leafValues>
            -3.9841714501380920e-01 3.3946859836578369e-01</leafValues></_></weakClassifiers></_>
    <!-- stage 15 -->
    <_>
      <maxWeakCount>20</maxWeakCount>
      <stageThreshold>-7.8622537851333618e-01</stageThreshold>
      <weakClassifiers>
        <_>
          <internalNodes>
            0 -1 151 -4325 2063593454 -16783703 -1238962310 -268435946
            -589955105 -285736976 -520814601</internalNodes>
          <leafValues>
            -1.5897436439990997e-01 5.3865033388137817e-01</leafValues></_>
        <_>
          <internalNodes>
            0 -1 119 -122262405 -8688137 -268500997 1606057981
            -1359155464 -352354305 -1090605160 -83722694</internalNodes>
          <leafValues>
            -2.7633959054946899e-01 3.9442551136016846e-01</leafValues></_>
        <_>
          <internalNodes>
            0 -1 49 -573482790 -872873852 -1070399289 -758688589
            -97858737 -645791729 1351238059 1227385230</internalNodes>
          <leafValues>
            -3.6445802450180054e-01 3.0993285775184631e-01</leafValues></_>
        <_>
          <internalNodes>
            0 -1 241 -1018976094 650776707 85134356 -255030868
            1770693206 780308483 -2102742608 -457795262</internalNodes>
          <leafValues>
            -4.3262413144111633e-01 2.7550694346427917e-01</leafValues></_>
        <_>
          <internalNodes>
            0 -1 295 -1910515663 323735552 268460309 -437252080
            -1969831141 -351993688 1099491713 -864814668</internalNodes>
          <leafValues>
            -3.5276579856872559e-01 3.2731920480728149e-01</leafValues></_>
        <_>
          <internalNodes>
            0 -1 152 -581905672 -1185402283 16779285 88167698 1377355932
            1477968042 -120716130 1576104062</internalNodes>
          <leafValues>
            -3.8508617877960205e-01 3.0124124884605408e-01</leafValues></_>
        <_>
          <internalNodes>
            0 -1 257 -205404271 1180647458 184779167 -1718050480
            537607107 -887668071 52029792 -705839040</internalNodes>
          <leafValues>
            -4.8340490460395813e-01 2.4011147022247314e-01</leafValues></_>
        <_>
          <internalNodes>
            0 -1 88 1360225015 -785202688 98329 419529316 281348160
            -401438192 142694616 1590766258</internalNodes>
          <leafValues>
            -3.9335417747497559e-01 3.2334718108177185e-01</leafValues></_>
        <_>
          <internalNodes>
            0 -1 154 -800436211 -250596904 134344157 1159860968
            -2121640968 -1161101157 730831552 2129658480</internalNodes>
          <leafValues>
            -4.3694889545440674e-01 2.7574819326400757e-01</leafValues></_>
        <_>
          <internalNodes>
            0 -1 24 -771265869 1912767114 16593 18926464 1498444721
            1535842432 673905202 -362715461</internalNodes>
          <leafValues>
            -3.8254275918006897e-01 3.1387504935264587e-01</leafValues></_>
        <_>
          <internalNodes>
            0 -1 42 -1181009153 1282051493 -883502217 -111420235
            -1615593557 -294656687 372965303 -1363419703</internalNodes>
          <leafValues>
            -2.9711812734603882e-01 4.2512586712837219e-01</leafValues></_>
        <_>
          <internalNodes>
            0 -1 301 -473263816 -1459551865 432226494 -219115070
            -536178601 1687126536 -2136378749 -387978799</internalNodes>
          <leafValues>
            -3.6835190653800964e-01 3.6658132076263428e-01</leafValues></_>
        <_>
          <internalNodes>
            0 -1 115 -1876180838 995266954 134387079 -938458726 61051216
            -1950777325 -1282932644 -952999745</internalNodes>
          <leafValues>
            -4.4758152961730957e-01 2.8654095530509949e-01</leafValues></_>
        <_>
          <internalNodes>
            0 -1 266 -837052382 606880529 -670738401 -265371495
            -1367128544 1086488586 -1297849616 -1309160734</internalNodes>
          <leafValues>
            -4.0612626075744629e-01 3.2105585932731628e-01</leafValues></_>
        <_>
          <internalNodes>
            0 -1 46 -128969508 -251051889 -767266673 -267173757
            -913800638 -83197943 39991259 1109547402</internalNodes>
          <leafValues>
            -4.2887505888938904e-01 3.2493677735328674e-01</leafValues></_>
        <_>
          <internalNodes>
            0 -1 3 1276036266 -782474813 134254713 -477499119 -939449615
            -1144840176 195309729 1833302368</internalNodes>
          <leafValues>
            -5.3666532039642334e-01 2.4766184389591217e-01</leafValues></_>
        <_>
          <internalNodes>
            0 -1 273 -960314333 1757417808 1079023638 -758509548
            -771414718 -401997824 -2087531872 -185671516</internalNodes>
          <leafValues>
            -4.4243252277374268e-01 3.1169235706329346e-01</leafValues></_>
        <_>
          <internalNodes>
            0 -1 189 6051217 -1384119384 50349568 231805331 1778934245
            -1154805366 -1476372478 129934617</internalNodes>
          <leafValues>
            -4.9152818322181702e-01 2.7383589744567871e-01</leafValues></_>
        <_>
          <internalNodes>
            0 -1 77 944124098 -1102748891 1075028219 872759624
            -1039038378 1756075457 442058821 -1807079184</internalNodes>
          <leafValues>
            -4.8827075958251953e-01 2.9808932542800903e-01</leafValues></_>
        <_>
          <internalNodes>
            0 -1 245 -688134734 2092627578 -1091650843 1306893366
            1337980705 -1103200451 96308523 -32522219</internalNodes>
          <leafValues>
            -3.2453253865242004e-01 4.5753368735313416e-01</leafValues></_></weakClassifiers></_>
    <!-- stage 16 -->
    <_>
      <maxWeakCount>21</maxWeakCount>
      <stageThreshold>-9.9324339628219604e-01</stageThreshold>
      <weakClassifiers>
        <_>
          <internalNodes>
            0 -1 162 -173656812 -576341090 -1241681953 -1396769034
            -33691 -51380355 -119547057 6585838</internalNodes>
          <leafValues>
            -3.4011629223823547e-01 4.8209512233734131e-01</leafValues></_>
        <_>
          <internalNodes>
            0 -1 37 674468215 -1978040318 1116852639 575291785
            -1283200489 -1097119006 117745 243912913</internalNodes>
          <leafValues>
            -4.2686450481414795e-01 2.6886948943138123e-01</leafValues></_>
        <_>
          <internalNodes>
            0 -1 212 -420485589 -2115600593 -1091686606 844167864
            -270561962 243236725 -940140956 -153095170</internalNodes>
          <leafValues>
            -3.0003973841667175e-01 3.6884674429893494e-01</leafValues></_>
        <_>
          <internalNodes>
            0 -1 305 -539470473 -104771178 -1072680775 -791996273
            -1031228662 -1156872128 -396194147 1334502110</internalNodes>
          <leafValues>
            -3.3870249986648560e-01 3.1166863441467285e-01</leafValues></_>
        <_>
          <internalNodes>
            0 -1 79 -171056415 662954741 -1856778101 231479498
            -1065093044 1384907020 1107821115 1480807944</internalNodes>
          <leafValues>
            -3.9922288060188293e-01 2.7968874573707581e-01</leafValues></_>
        <_>
          <internalNodes>
            0 -1 123 1557188001 -10567286 1166086472 -1121954407
            1200755619 -1165751165 1940035438 526012513</internalNodes>
          <leafValues>
            -4.0062308311462402e-01 2.6663389801979065e-01</leafValues></_>
        <_>
          <internalNodes>
            0 -1 227 1240830854 -135513686 -134439464 -109499358
            1647601145 -1576745592 341179754 2137643774</internalNodes>
          <leafValues>
            -2.6926374435424805e-01 4.0566992759704590e-01</leafValues></_>
        <_>
          <internalNodes>
            0 -1 191 -1632215593 -21065737 1861091325 -63742465
            -1526760100 -1077936129 -589353015 -25522296</internalNodes>
          <leafValues>
            -3.3818706870079041e-01 3.4927028417587280e-01</leafValues></_>
        <_>
          <internalNodes>
            0 -1 19 -210413348 -783199796 -804978595 -256634472
            1611459148 -615802360 -919041800 691686895</internalNodes>
          <leafValues>
            -3.3850401639938354e-01 3.3344370126724243e-01</leafValues></_>
        <_>
          <internalNodes>
            0 -1 122 135976002 -2129166032 1343293391 223977867
            -1055847477 -1942253176 -914323369 -859393374</internalNodes>
          <leafValues>
            -3.7640205025672913e-01 3.1882533431053162e-01</leafValues></_>
        <_>
          <internalNodes>
            0 -1 118 -384150885 -897220428 -645715715 1883521362
            -2147378055 -600637373 -389446980 -361976</internalNodes>
          <leafValues>
            -3.5287699103355408e-01 3.6187225580215454e-01</leafValues></_>
        <_>
          <internalNodes>
            0 -1 20 -741346297 -1005927738 268640539 -1857605387
            -1865030986 -450756534 -1056272267 -322503616</internalNodes>
          <leafValues>
            -3.4952989220619202e-01 3.5819947719573975e-01</leafValues></_>
        <_>
          <internalNodes>
            0 -1 146 1631543950 287960930 -1259552980 838074309
            -956908210 74383239 2130102250 -939583561</internalNodes>
          <leafValues>
            -3.2576629519462585e-01 3.8890957832336426e-01</leafValues></_>
        <_>
          <internalNodes>
            0 -1 166 -964574637 616666405 -1072618828 284881357
            -1308024015 -1071640030 -158620544 -793517360</internalNodes>
          <leafValues>
            -3.9174181222915649e-01 3.1851699948310852e-01</leafValues></_>
        <_>
          <internalNodes>
            0 -1 205 941256839 975225054 -2076075825 1408517452
            -653765418 -15677392 -662638467 -2139344399</internalNodes>
          <leafValues>
            -3.7650886178016663e-01 3.2338303327560425e-01</leafValues></_>
        <_>
          <internalNodes>
            0 -1 224 1414067078 -1613175601 18099535 -105377193
            453070986 -1767833598 432550089 927436844</internalNodes>
          <leafValues>
            -3.4297493100166321e-01 3.5883814096450806e-01</leafValues></_>
        <_>
          <internalNodes>
            0 -1 92 1671393986 593506461 -2063597567 731635873
            1510355255 -1711259595 -98232222 -206268142</internalNodes>
          <leafValues>
            -3.8194304704666138e-01 3.4406644105911255e-01</leafValues></_>
        <_>
          <internalNodes>
            0 -1 176 -127927605 -20534592 2080210595 -584991010
            -1753874958 1315770364 2113624767 -537264309</internalNodes>
          <leafValues>
            -2.1924111247062683e-01 5.8068192005157471e-01</leafValues></_>
        <_>
          <internalNodes>
            0 -1 64 -918207786 1086787802 1342931069 1086530503
            -125274838 1174407690 -511031079 1177193242</internalNodes>
          <leafValues>
            -4.2811933159828186e-01 2.9589867591857910e-01</leafValues></_>
        <_>
          <internalNodes>
            0 -1 199 1111867907 -674385937 1072276967 484820667
            1467397875 64335412 -1912860818 1806274027</internalNodes>
          <leafValues>
            -2.9775571823120117e-01 4.1614073514938354e-01</leafValues></_>
        <_>
          <internalNodes>
            0 -1 225 1552152049 1745388216 268436887 1427294209
            155798123 -2122300288 1074508456 -2121183223</internalNodes>
          <leafValues>
            -3.9870953559875488e-01 3.1675142049789429e-01</leafValues></_></weakClassifiers></_>
    <!-- stage 17 -->
    <_>
      <maxWeakCount>22</maxWeakCount>
      <stageThreshold>-1.1170547008514404e+00</stageThreshold>
      <weakClassifiers>
        <_>
          <internalNodes>
            0 -1 74 -4210772 1728049135 -1285 -555089922 -181 -402653185
            -138 -521666561</internalNodes>
          <leafValues>
            -2.5192520022392273e-01 5.1093441247940063e-01</leafValues></_>
        <_>
          <internalNodes>
            0 -1 247 -1347571525 -1496731379 1343279191 -224702324
            -1165376915 -893747192 -800459692 -992627584</internalNodes>
          <leafValues>
            -4.1156378388404846e-01 2.7571633458137512e-01</leafValues></_>
        <_>
          <internalNodes>
            0 -1 13 -841460260 -1729095242 -1030647671 -252755210
            -935683762 -385308653 159910586 1560837099</internalNodes>
          <leafValues>
            -4.0388718247413635e-01 2.5347438454627991e-01</leafValues></_>
        <_>
          <internalNodes>
            0 -1 55 1529345703 -73249270 -830596537 -1788130178
            -277564240 -1131520239 1065077448 1683091434</internalNodes>
          <leafValues>
            -2.6421162486076355e-01 4.0376189351081848e-01</leafValues></_>
        <_>
          <internalNodes>
            0 -1 284 -246946397 -964370091 302076241 -222280996
            152176546 -888565247 -1868601069 -1779212861</internalNodes>
          <leafValues>
            -3.5435122251510620e-01 2.9872962832450867e-01</leafValues></_>
        <_>
          <internalNodes>
            0 -1 182 1464107679 1073213288 1677093879 636485604
            -1932552209 1424948127 -1242105874 -2083575281</internalNodes>
          <leafValues>
            -2.5809401273727417e-01 4.6090865135192871e-01</leafValues></_>
        <_>
          <internalNodes>
            0 -1 133 1241959763 360730189 1293174110 826761499
            1757815671 -1735161174 975563652 249186830</internalNodes>
          <leafValues>
            -4.1580063104629517e-01 2.7573937177658081e-01</leafValues></_>
        <_>
          <internalNodes>
            0 -1 111 -2088713629 -286088426 1353244887 -746036867
            -54130316 2041135154 -330683948 -88937616</internalNodes>
          <leafValues>
            -3.6640092730522156e-01 3.2664385437965393e-01</leafValues></_>
        <_>
          <internalNodes>
            0 -1 313 -1332090921 -408514487 2108850640 -719736823
            -1969700676 1745519151 -2145230029 2138522216</internalNodes>
          <leafValues>
            -3.9156106114387512e-01 3.0992862582206726e-01</leafValues></_>
        <_>
          <internalNodes>
            0 -1 195 329222374 345243782 1124108426 -1593572466
            709069514 239093799 -435254343 829828080</internalNodes>
          <leafValues>
            -4.4556152820587158e-01 2.6140499114990234e-01</leafValues></_>
        <_>
          <internalNodes>
            0 -1 187 -1108027016 1186291450 -185338371 1340437912
            1845352157 -1898160267 255422206 -325323629</internalNodes>
          <leafValues>
            -2.7262637019157410e-01 4.3834313750267029e-01</leafValues></_>
        <_>
          <internalNodes>
            0 -1 233 -787443192 -150908185 160486485 1279307859
            1342387032 -1701707502 311552875 82571887</internalNodes>
          <leafValues>
            -4.9493607878684998e-01 2.4450464546680450e-01</leafValues></_>
        <_>
          <internalNodes>
            0 -1 56 -1851421986 -1697611056 17154586 1124309005
            1226762450 -934213070 42474142 1635469555</internalNodes>
          <leafValues>
            -3.6148133873939514e-01 3.4288549423217773e-01</leafValues></_>
        <_>
          <internalNodes>
            0 -1 113 -1474679533 -632549350 -805074344 -628097000
            -922603440 -1281146296 -880725744 -281372070</internalNodes>
          <leafValues>
            -4.4866237044334412e-01 2.8975951671600342e-01</leafValues></_>
        <_>
          <internalNodes>
            0 -1 261 -795223247 -855256143 -1669250598 1841779142
            448940947 -1953888063 403196128 -1921654700</internalNodes>
          <leafValues>
            -4.6025353670120239e-01 3.0821585655212402e-01</leafValues></_>
        <_>
          <internalNodes>
            0 -1 22 -379072341 1662044870 -1928199781 -1983168221
            1380147516 1822491986 -650913678 1633932875</internalNodes>
          <leafValues>
            -3.6243245005607605e-01 3.4833917021751404e-01</leafValues></_>
        <_>
          <internalNodes>
            0 -1 121 1215457347 -511148032 1140983859 -858254430
            -1652015499 465600640 9953735 1448603750</internalNodes>
          <leafValues>
            -5.1894086599349976e-01 2.5923526287078857e-01</leafValues></_>
        <_>
          <internalNodes>
            0 -1 248 1592202882 2079178302 -1932248840 529033262
            145108414 -2010268036 -1000901251 -753959229</internalNodes>
          <leafValues>
            -3.1726720929145813e-01 4.1802912950515747e-01</leafValues></_>
        <_>
          <internalNodes>
            0 -1 140 -327157995 -1364840594 -336481335 -25952271
            -137659977 1593604085 786956963 -1643708952</internalNodes>
          <leafValues>
            -3.4756416082382202e-01 3.8617208600044250e-01</leafValues></_>
        <_>
          <internalNodes>
            0 -1 311 -753052481 -129957614 1107660925 -1307357038
            1350616323 -116717566 42113259 1573580778</internalNodes>
          <leafValues>
            -3.6424142122268677e-01 3.5821858048439026e-01</leafValues></_>
        <_>
          <internalNodes>
            0 -1 160 -805189869 942256134 -1853783856 -1786294269
            -1601879468 -1153957813 486621226 141062473</internalNodes>
          <leafValues>
            -4.1333204507827759e-01 3.1355449557304382e-01</leafValues></_>
        <_>
          <internalNodes>
            0 -1 61 -1878871856 1753448708 269701215 1208709595
            -929393638 -75398128 716089877 -1406430759</internalNodes>
          <leafValues>
            -4.1669461131095886e-01 3.2443034648895264e-01</leafValues></_></weakClassifiers></_>
    <!-- stage 18 -->
    <_>
      <maxWeakCount>22</maxWeakCount>
      <stageThreshold>-9.9206560850143433e-01</stageThreshold>
      <weakClassifiers>
        <_>
          <internalNodes>
            0 -1 54 -1343345150 -419430401 -32852 1877147647 1065313607
            1275035647 -604543411 1145372260</internalNodes>
          <leafValues>
            -4.3057996034622192e-01 4.7008547186851501e-01</leafValues></_>
        <_>
          <internalNodes>
            0 -1 58 -640221057 1135280247 43139863 9842770 -117041093
            -381013409 1512761788 -1943006605</internalNodes>
          <leafValues>
            -4.1697144508361816e-01 2.6952210068702698e-01</leafValues></_>
        <_>
          <internalNodes>
            0 -1 45 -1079051271 -894568671 1526592119 -609388763
            -1073824773 -1901533206 924776403 -337669643</internalNodes>
          <leafValues>
            -2.6754304766654968e-01 4.3769347667694092e-01</leafValues></_>
        <_>
          <internalNodes>
            0 -1 164 -522771379 -1442185184 -2119724327 -1231937386
            1611415577 -2088009466 -516267600 -54613024</internalNodes>
          <leafValues>
            -3.7930735945701599e-01 2.8656914830207825e-01</leafValues></_>
        <_>
          <internalNodes>
            0 -1 211 -586944754 1724358023 1376797238 369496089
            276875629 289587291 1938072565 -157289733</internalNodes>
          <leafValues>
            -3.9690783619880676e-01 2.8071093559265137e-01</leafValues></_>
        <_>
          <internalNodes>
            0 -1 91 -1246234187 2111028766 -157523985 1270312510
            -1624154920 -1086644980 -281396004 -72895846</internalNodes>
          <leafValues>
            -2.7329787611961365e-01 4.3908527493476868e-01</leafValues></_>
        <_>
          <internalNodes>
            0 -1 278 -8293 -1545634049 -269 2143092715 -101322283
            -671088644 1425393076 -638108426</internalNodes>
          <leafValues>
            -3.0996808409690857e-01 3.8435012102127075e-01</leafValues></_>
        <_>
          <internalNodes>
            0 -1 157 475290833 -656523036 1275517941 -1140200757
            -2146833220 -1953628006 1774966865 506216506</internalNodes>
          <leafValues>
            -3.9616942405700684e-01 3.0295318365097046e-01</leafValues></_>
        <_>
          <internalNodes>
            0 -1 291 -1358186501 -1477448092 -1074318735 1568668893
            791398282 -847349876 328055767 2092636000</internalNodes>
          <leafValues>
            -3.2477763295173645e-01 3.7226629257202148e-01</leafValues></_>
        <_>
          <internalNodes>
            0 -1 2 1719110678 -914324466 134287707 -460570166 579406254
            1715372067 -884473675 1081537910</internalNodes>
          <leafValues>
            -5.1301485300064087e-01 2.2312106192111969e-01</leafValues></_>
        <_>
          <internalNodes>
            0 -1 155 -1677207991 870859988 878035397 51293147
            -1145463882 450496035 962087389 1277040180</internalNodes>
          <leafValues>
            -4.5676213502883911e-01 2.5088346004486084e-01</leafValues></_>
        <_>
          <internalNodes>
            0 -1 57 -11489545 1938297424 -2146958844 604504066
            -2016460048 1476450848 1887572431 -407641575</internalNodes>
          <leafValues>
            -3.3869487047195435e-01 3.6005604267120361e-01</leafValues></_>
        <_>
          <internalNodes>
            0 -1 96 -804198183 -481755072 3312026 -455240883 -1466310137
            -2097149912 1092336039 -1624521061</internalNodes>
          <leafValues>
            -3.6267146468162537e-01 3.4460747241973877e-01</leafValues></_>
        <_>
          <internalNodes>
            0 -1 185 1095098570 1767474053 559218836 -2141976238
            -884512268 287576212 -779993298 1232200575</internalNodes>
          <leafValues>
            -3.8777250051498413e-01 3.1041011214256287e-01</leafValues></_>
        <_>
          <internalNodes>
            0 -1 174 -1970040509 -1375446995 1360008336 -498692906
            575246864 -828211064 1662684212 -131937712</internalNodes>
          <leafValues>
            -5.6279182434082031e-01 2.2845989465713501e-01</leafValues></_>
        <_>
          <internalNodes>
            0 -1 255 793288857 2080522521 -2130706085 901832901
            -1551257161 -400522871 1117913305 -1434290809</internalNodes>
          <leafValues>
            -3.9392760396003723e-01 3.1843706965446472e-01</leafValues></_>
        <_>
          <internalNodes>
            0 -1 40 -1149184196 -939405248 420745507 1951875649 44223027
            -1424817270 805693942 158532037</internalNodes>
          <leafValues>
            -4.4228658080101013e-01 2.9757317900657654e-01</leafValues></_>
        <_>
          <internalNodes>
            0 -1 283 -130045133 -1347504595 2147335732 -1230051530
            -1619732594 -454197260 394237856 -184556150</internalNodes>
          <leafValues>
            -3.1024274230003357e-01 4.0651383996009827e-01</leafValues></_>
        <_>
          <internalNodes>
            0 -1 89 -609113725 -1213805258 -390594985 -1452581839
            -1111802694 -1631887536 -1624088818 1301935102</internalNodes>
          <leafValues>
            -2.8028815984725952e-01 4.8188060522079468e-01</leafValues></_>
        <_>
          <internalNodes>
            0 -1 270 -888942102 -1945626624 -1002401477 991035841
            -1557633982 -1425964925 34555174 -197657705</internalNodes>
          <leafValues>
            -3.7141308188438416e-01 3.4667041897773743e-01</leafValues></_>
        <_>
          <internalNodes>
            0 -1 116 1869271643 2075279199 846987100 1790017000
            1500997520 1592688639 -394995972 -98345446</internalNodes>
          <leafValues>
            -3.3790460228919983e-01 4.0185046195983887e-01</leafValues></_>
        <_>
          <internalNodes>
            0 -1 127 1479497866 -324251578 1376273965 -425910248
            -1411915016 182602144 672561477 1950537480</internalNodes>
          <leafValues>
            -4.4511407613754272e-01 3.0539539456367493e-01</leafValues></_></weakClassifiers></_>
    <!-- stage 19 -->
    <_>
      <maxWeakCount>21</maxWeakCount>
      <stageThreshold>-8.3929848670959473e-01</stageThreshold>
      <weakClassifiers>
        <_>
          <internalNodes>
            0 -1 75 -2104312976 -1192132588 1773241397 13386544
            -66614384 67108998 230758932 67112512</internalNodes>
          <leafValues>
            -5.6120091676712036e-01 4.5359018445014954e-01</leafValues></_>
        <_>
          <internalNodes>
            0 -1 299 -541566471 -1494295318 -754978053 -755018509
            -1351431606 -548742026 354872291 1132646863</internalNodes>
          <leafValues>
            -3.0185291171073914e-01 3.6914071440696716e-01</leafValues></_>
        <_>
          <internalNodes>
            0 -1 84 -431084837 -771555301 -2146926475 1912788388
            -1474248157 -637435869 -847119670 -1168462162</internalNodes>
          <leafValues>
            -3.2249185442924500e-01 3.3285567164421082e-01</leafValues></_>
        <_>
          <internalNodes>
            0 -1 294 167965265 -1291681711 423821587 -1660898662
            -934884645 -1097891677 1619523851 -1936794300</internalNodes>
          <leafValues>
            -4.0326550602912903e-01 2.6425755023956299e-01</leafValues></_>
        <_>
          <internalNodes>
            0 -1 272 -569944815 -183070446 -2062462523 5656776
            -833934784 -347569513 -1842451526 -2140173225</internalNodes>
          <leafValues>
            -4.1158664226531982e-01 2.3855419456958771e-01</leafValues></_>
        <_>
          <internalNodes>
            0 -1 229 1499696522 1403584494 -1208303822 -34160770
            -402701105 117235647 -134289670 -1261454089</internalNodes>
          <leafValues>
            -3.1358164548873901e-01 3.5312077403068542e-01</leafValues></_>
        <_>
          <internalNodes>
            0 -1 292 -2029917225 -1417082776 287953154 -1358475179
            -1203208141 -894336976 570471715 453773424</internalNodes>
          <leafValues>
            -4.5076981186866760e-01 2.4445769190788269e-01</leafValues></_>
        <_>
          <internalNodes>
            0 -1 71 1822552751 -1223938306 -18680844 736423887
            -756558003 -40853936 1180976649 -1277462069</internalNodes>
          <leafValues>
            -3.0013942718505859e-01 3.7329626083374023e-01</leafValues></_>
        <_>
          <internalNodes>
            0 -1 228 -1810376191 1419395150 -704064307 -1894207930
            -1202861523 -742571902 37470379 254923306</internalNodes>
          <leafValues>
            -3.3866071701049805e-01 3.3358675241470337e-01</leafValues></_>
        <_>
          <internalNodes>
            0 -1 159 330430419 -652288224 -402882633 1404167024
            -2027498062 -57772173 -1982472199 -1182950220</internalNodes>
          <leafValues>
            -2.7012780308723450e-01 4.3549451231956482e-01</leafValues></_>
        <_>
          <internalNodes>
            0 -1 158 -191403278 -1203634025 536936464 310542594
            -1065256443 -905279466 -1324394316 -300233888</internalNodes>
          <leafValues>
            -4.2327520251274109e-01 2.8586733341217041e-01</leafValues></_>
        <_>
          <internalNodes>
            0 -1 204 616712394 1119901224 1107733657 140017745 536953264
            -1441611592 -1135902499 336617996</internalNodes>
          <leafValues>
            -5.9602618217468262e-01 2.1381841599941254e-01</leafValues></_>
        <_>
          <internalNodes>
            0 -1 214 1342017469 -713064537 1055203874 -1317650898
            -1221226892 334819188 -1615506242 1374404411</internalNodes>
          <leafValues>
            -3.1702318787574768e-01 3.6999493837356567e-01</leafValues></_>
        <_>
          <internalNodes>
            0 -1 86 -1056867671 -528383742 20992085 -1606680233
            -1339170231 1229119624 17212103 51495645</internalNodes>
          <leafValues>
            -4.8464652895927429e-01 2.4860042333602905e-01</leafValues></_>
        <_>
          <internalNodes>
            0 -1 14 -1874159454 -1459126037 -2120400613 -271153937
            -1048419702 -1257619440 -2113838096 559952147</internalNodes>
          <leafValues>
            -4.9310034513473511e-01 2.6364740729331970e-01</leafValues></_>
        <_>
          <internalNodes>
            0 -1 252 -972835975 243814467 -1996208811 -643513952
            147360184 -2142691328 -209157436 -2133677912</internalNodes>
          <leafValues>
            -3.8033676147460938e-01 3.3085075020790100e-01</leafValues></_>
        <_>
          <internalNodes>
            0 -1 267 1832623029 -563570462 -1880705347 1033840110
            -1346519041 796692454 348183614 1610215451</internalNodes>
          <leafValues>
            -2.4945071339607239e-01 4.8654225468635559e-01</leafValues></_>
        <_>
          <internalNodes>
            0 -1 27 1380113142 1363149826 -1844952398 -964212155
            1493516372 -1239272951 -778970768 1086806851</internalNodes>
          <leafValues>
            -5.1005887985229492e-01 2.5499981641769409e-01</leafValues></_>
        <_>
          <internalNodes>
            0 -1 142 -1406680757 -1942075053 344260965 -35634107
            -150335163 -1548685288 2015664376 -1639381716</internalNodes>
          <leafValues>
            -3.7934565544128418e-01 3.4455907344818115e-01</leafValues></_>
        <_>
          <internalNodes>
            0 -1 309 -876763878 -1026731900 67295006 -963391079
            -1431796974 -77954808 -1744706905 -442261312</internalNodes>
          <leafValues>
            -3.8926604390144348e-01 3.1635800004005432e-01</leafValues></_>
        <_>
          <internalNodes>
            0 -1 168 -1061721781 535789548 1710799800 -716456075
            -974192662 1633336886 -269204101 1459058471</internalNodes>
          <leafValues>
            -3.1999573111534119e-01 3.9944449067115784e-01</leafValues></_></weakClassifiers></_></stages>
  <features>
    <_>
      <rect>
        0 0 1 1</rect></_>
    <_>
      <rect>
        0 0 2 1</rect></_>
    <_>
      <rect>
        0 0 5 3</rect></_>
    <_>
      <rect>
        0 0 5 8</rect></_>
    <_>
      <rect>
        0 0 5 10</rect></_>
    <_>
      <rect>
        0 0 7 6</rect></_>
    <_>
      <rect>
        0 0 7 8</rect></_>
    <_>
      <rect>
        0 0 8 2</rect></_>
    <_>
      <rect>
        0 0 10 2</rect></_>
    <_>
      <rect>
        0 0 10 6</rect></_>
    <_>
      <rect>
        0 0 12 2</rect></_>
    <_>
      <rect>
        0 0 13 4</rect></_>
    <_>
      <rect>
        0 0 13 13</rect></_>
    <_>
      <rect>
        0 1 1 1</rect></_>
    <_>
      <rect>
        0 1 5 7</rect></_>
    <_>
      <rect>
        0 1 5 11</rect></_>
    <_>
      <rect>
        0 1 13 9</rect></_>
    <_>
      <rect>
        0 2 1 1</rect></_>
    <_>
      <rect>
        0 2 4 9</rect></_>
    <_>
      <rect>
        0 3 1 1</rect></_>
    <_>
      <rect>
        0 4 2 4</rect></_>
    <_>
      <rect>
        0 7 8 11</rect></_>
    <_>
      <rect>
        0 8 4 7</rect></_>
    <_>
      <rect>
        0 10 4 8</rect></_>
    <_>
      <rect>
        0 10 6 10</rect></_>
    <_>
      <rect>
        0 11 4 4</rect></_>
    <_>
      <rect>
        0 11 13 8</rect></_>
    <_>
      <rect>
        0 15 6 6</rect></_>
    <_>
      <rect>
        0 18 2 2</rect></_>
    <_>
      <rect>
        0 19 6 7</rect></_>
    <_>
      <rect>
        0 20 1 1</rect></_>
    <_>
      <rect>
        0 21 4 5</rect></_>
    <_>
      <rect>
        0 22 7 6</rect></_>
    <_>
      <rect>
        0 25 3 3</rect></_>
    <_>
      <rect>
        0 25 7 5</rect></_>
    <_>
      <rect>
        0 26 5 3</rect></_>
    <_>
      <rect>
        0 28 5 3</rect></_>
    <_>
      <rect>
        0 31 2 3</rect></_>
    <_>
      <rect>
        0 31 3 3</rect></_>
    <_>
      <rect>
        0 31 6 3</rect></_>
    <_>
      <rect>
        0 32 1 1</rect></_>
    <_>
      <rect>
        0 34 1 2</rect></_>
    <_>
      <rect>
        0 35 1 1</rect></_>
    <_>
      <rect>
        0 36 1 1</rect></_>
    <_>
      <rect>
        0 37 1 1</rect></_>
    <_>
      <rect>
        0 37 2 1</rect></_>
    <_>
      <rect>
        1 0 1 1</rect></_>
    <_>
      <rect>
        1 0 13 6</rect></_>
    <_>
      <rect>
        1 1 13 13</rect></_>
    <_>
      <rect>
        1 2 1 1</rect></_>
    <_>
      <rect>
        1 15 1 1</rect></_>
    <_>
      <rect>
        1 36 1 1</rect></_>
    <_>
      <rect>
        1 37 1 1</rect></_>
    <_>
      <rect>
        2 0 6 4</rect></_>
    <_>
      <rect>
        2 0 11 4</rect></_>
    <_>
      <rect>
        2 10 4 6</rect></_>
    <_>
      <rect>
        2 12 6 4</rect></_>
    <_>
      <rect>
        2 16 9 8</rect></_>
    <_>
      <rect>
        2 25 3 5</rect></_>
    <_>
      <rect>
        2 27 3 4</rect></_>
    <_>
      <rect>
        2 28 4 4</rect></_>
    <_>
      <rect>
        2 32 1 1</rect></_>
    <_>
      <rect>
        2 37 1 1</rect></_>
    <_>
      <rect>
        3 0 1 1</rect></_>
    <_>
      <rect>
        3 1 1 1</rect></_>
    <_>
      <rect>
        3 2 5 10</rect></_>
    <_>
      <rect>
        3 14 11 6</rect></_>
    <_>
      <rect>
        3 15 9 6</rect></_>
    <_>
      <rect>
        3 17 8 6</rect></_>
    <_>
      <rect>
        3 18 1 1</rect></_>
    <_>
      <rect>
        3 18 8 7</rect></_>
    <_>
      <rect>
        3 19 8 5</rect></_>
    <_>
      <rect>
        3 22 1 1</rect></_>
    <_>
      <rect>
        3 37 1 1</rect></_>
    <_>
      <rect>
        4 0 12 1</rect></_>
    <_>
      <rect>
        4 5 10 9</rect></_>
    <_>
      <rect>
        4 9 4 6</rect></_>
    <_>
      <rect>
        4 10 11 10</rect></_>
    <_>
      <rect>
        4 14 4 4</rect></_>
    <_>
      <rect>
        4 14 7 7</rect></_>
    <_>
      <rect>
        4 16 1 1</rect></_>
    <_>
      <rect>
        4 16 11 8</rect></_>
    <_>
      <rect>
        4 21 1 1</rect></_>
    <_>
      <rect>
        4 22 8 6</rect></_>
    <_>
      <rect>
        4 31 1 1</rect></_>
    <_>
      <rect>
        4 36 2 1</rect></_>
    <_>
      <rect>
        4 37 2 1</rect></_>
    <_>
      <rect>
        5 0 9 2</rect></_>
    <_>
      <rect>
        5 6 4 6</rect></_>
    <_>
      <rect>
        5 7 3 6</rect></_>
    <_>
      <rect>
        5 8 10 8</rect></_>
    <_>
      <rect>
        5 13 3 7</rect></_>
    <_>
      <rect>
        5 13 7 9</rect></_>
    <_>
      <rect>
        5 16 9 6</rect></_>
    <_>
      <rect>
        5 27 1 1</rect></_>
    <_>
      <rect>
        5 37 1 1</rect></_>
    <_>
      <rect>
        5 37 2 1</rect></_>
    <_>
      <rect>
        6 6 4 7</rect></_>
    <_>
      <rect>
        6 7 8 11</rect></_>
    <_>
      <rect>
        6 8 4 7</rect></_>
    <_>
      <rect>
        6 9 4 4</rect></_>
    <_>
      <rect>
        6 28 1 1</rect></_>
    <_>
      <rect>
        6 32 1 1</rect></_>
    <_>
      <rect>
        6 33 1 1</rect></_>
    <_>
      <rect>
        7 0 9 4</rect></_>
    <_>
      <rect>
        7 0 10 4</rect></_>
    <_>
      <rect>
        7 0 11 3</rect></_>
    <_>
      <rect>
        7 0 11 12</rect></_>
    <_>
      <rect>
        7 12 3 6</rect></_>
    <_>
      <rect>
        7 12 6 6</rect></_>
    <_>
      <rect>
        7 12 8 7</rect></_>
    <_>
      <rect>
        7 17 1 1</rect></_>
    <_>
      <rect>
        7 19 6 7</rect></_>
    <_>
      <rect>
        7 22 1 1</rect></_>
    <_>
      <rect>
        7 24 3 3</rect></_>
    <_>
      <rect>
        7 26 5 4</rect></_>
    <_>
